{"fc1.weight": [[0.5631314516067505, 0.7949848175048828, 0.3130914568901062, 0.24544665217399597, -0.48033368587493896, 0.10098104923963547], [0.5769454836845398, -0.32722988724708557, 0.2774989604949951, -0.07187885046005249, 0.3912801146507263, -0.010549391619861126], [-0.4505816102027893, 0.28712761402130127, 0.312917023897171, -0.25598806142807007, 0.17409290373325348, 0.17332470417022705], [-0.4124099612236023, -0.21920146048069, 0.14159798622131348, -0.34445950388908386, 0.2775139808654785, 0.2947762608528137], [0.0865652784705162, -0.0741599053144455, -0.019430793821811676, -0.4346838593482971, 0.32337719202041626, -0.0054954644292593], [-0.35364317893981934, -0.16607879102230072, 0.2162182331085205, -0.4212647080421448, 0.1652417629957199, -0.045912813395261765], [-0.521568238735199, -0.3976990282535553, 0.14030110836029053, -0.28991204500198364, -0.11514996737241745, 0.17131415009498596], [-0.01364959217607975, 0.14750748872756958, -0.1768050193786621, 0.20847931504249573, -0.42607054114341736, -0.028338953852653503], [0.19981834292411804, 0.26739442348480225, 0.4845426082611084, -0.07274936139583588, 0.2221607267856598, 0.004467560909688473], [-0.2032468616962433, -0.18370309472084045, 0.4793488383293152, -0.24750776588916779, -0.21523092687129974, -0.16780994832515717], [0.7576131224632263, 0.20297139883041382, -0.34487536549568176, -0.6288511157035828, 0.18808317184448242, -0.2032247930765152], [0.14078426361083984, 0.010089744813740253, 0.6108546853065491, -0.15085260570049286, -0.15808998048305511, 0.011143597774207592], [0.19403696060180664, 0.4452659487724304, 0.2810248136520386, 0.09936532378196716, 0.11272478848695755, -0.3902161121368408], [-0.5643697381019592, -0.18882106244564056, 0.6236435770988464, 0.12701724469661713, 0.33711642026901245, 0.1311131715774536], [0.5336219072341919, -0.3101177513599396, 0.49717822670936584, -0.1678478866815567, -0.12143165618181229, -0.3386216461658478], [-0.736935019493103, 0.43656712770462036, 0.23572736978530884, -0.42654651403427124, -0.3189469873905182, 0.12115854769945145], [-0.1551872342824936, -0.4382670521736145, 0.5345577597618103, -0.031848110258579254, 0.3497975170612335, 0.029878396540880203], [0.7731725573539734, 0.2458452582359314, 0.28101781010627747, -0.30996477603912354, 0.3344339430332184, 0.2686774730682373], [0.3198340833187103, -0.18800026178359985, -0.2879677712917328, -0.40969520807266235, 0.04662381857633591, -0.142056405544281], [0.4836985468864441, 0.10162124782800674, -0.4035594165325165, 0.2374477982521057, 0.11067721247673035, -0.2066037505865097], [-0.34087562561035156, 0.37250053882598877, 0.6143150329589844, -0.41950082778930664, 0.016656789928674698, 0.3011269271373749], [-0.23305895924568176, 0.21823744475841522, 0.19233204424381256, -0.10491430014371872, 0.2525008022785187, 0.10657783597707748], [0.2516496181488037, 0.21629928052425385, 0.21606288850307465, -0.1618867665529251, 0.09631521999835968, 0.012881026603281498], [0.6626691222190857, 0.029343746602535248, 0.2896471619606018, -0.21476280689239502, 0.2393096536397934, 0.3659649193286896], [0.46304044127464294, 0.09776894003152847, -0.5532188415527344, -0.055939868092536926, 0.02185661904513836, -0.31115520000457764], [-0.15593214333057404, 0.2549761235713959, -0.5471590161323547, -0.18518175184726715, 0.10500914603471756, -0.21937382221221924], [-0.29154250025749207, 0.08554588258266449, -0.23858286440372467, -0.14991377294063568, 0.31808680295944214, -0.07263439893722534], [-0.5101838707923889, -0.30577826499938965, -0.26885002851486206, -0.40960967540740967, 0.32950249314308167, -0.19704589247703552], [-0.5179729461669922, -0.1142493486404419, -0.08220469206571579, 0.031334590166807175, -0.06705769151449203, -0.47007420659065247], [-0.4772062599658966, 0.13580432534217834, -0.24093389511108398, 0.4005027115345001, 0.24530601501464844, 0.16499380767345428], [0.10995717346668243, 0.1807982474565506, 0.6167663335800171, 0.045880645513534546, 0.1562357097864151, -0.1295475959777832], [0.04428589716553688, 0.2467295527458191, 0.19834744930267334, 0.25076887011528015, -0.06954851001501083, -0.321031391620636], [-1.027927041053772, 0.13128921389579773, -0.20453141629695892, 0.1752731204032898, 0.27819687128067017, 0.016602255403995514], [0.3294380307197571, 0.2183791548013687, 0.6626996397972107, 0.025774894282221794, -0.21186131238937378, -0.034280192106962204], [-0.35937753319740295, 0.27513250708580017, 0.1765093356370926, 0.08001244813203812, 0.18480373919010162, -0.088374063372612], [0.04870593547821045, -0.27576738595962524, 0.26701784133911133, -0.06260994076728821, -0.2904069721698761, 0.04058188199996948], [-0.6668227910995483, -0.15147079527378082, 0.014464382082223892, 0.3248291015625, 0.19220510125160217, 0.06046675890684128], [-0.3707849085330963, -0.3150234818458557, -0.17014308273792267, -0.06809784471988678, 0.29434096813201904, -0.21666423976421356], [-0.5477948784828186, 0.6535634994506836, 0.5710799694061279, -0.1933305263519287, -0.23160305619239807, 0.17987032234668732], [0.3604820668697357, 0.42339298129081726, 0.3171081840991974, 0.14498217403888702, 0.2704116404056549, 0.3116234242916107], [0.060622088611125946, -0.2390008121728897, -0.15424330532550812, -0.14568962156772614, 0.3278424143791199, -0.3353661596775055], [0.12199331820011139, 0.5723287463188171, -0.40091896057128906, 0.024734005331993103, -0.19741371273994446, -0.15496757626533508], [-0.02710680663585663, 0.2882348895072937, 0.4565792679786682, -0.03969087451696396, 0.06352557241916656, 0.25406885147094727], [-0.31252214312553406, 0.4304300844669342, 0.1094331368803978, -0.028720274567604065, -0.02642132341861725, -0.2026013433933258], [0.45415830612182617, 0.541754961013794, 0.3778662383556366, -0.1816873699426651, -0.17707553505897522, -0.09287115186452866], [0.7229591012001038, 0.4174295961856842, 0.3679191768169403, 0.12348844110965729, -0.18196886777877808, -0.21945498883724213], [0.2600732445716858, 0.44273641705513, -0.41240376234054565, -0.09860583394765854, 0.03611058369278908, 0.2764165699481964], [-0.4247047007083893, -0.10938966274261475, -0.5147866010665894, -0.13438060879707336, 0.3935497999191284, 0.33844587206840515], [-0.11530087143182755, -0.1357002854347229, -0.5969576835632324, -0.03378545865416527, -0.0618889294564724, -0.26246005296707153], [0.5863639712333679, -0.01590714603662491, -0.199690580368042, -0.017619486898183823, -0.08000608533620834, 0.012347419746220112], [0.4772886037826538, -0.2996410131454468, 0.0052760993130505085, 0.06893563270568848, 0.41019031405448914, 0.2675042450428009], [0.1399010419845581, -0.2937210500240326, 0.40295490622520447, 0.09059291332960129, -0.17047148942947388, 0.252462238073349], [-0.35061630606651306, 0.30329447984695435, -0.5032872557640076, -0.31296685338020325, 0.323673814535141, -0.2161855548620224], [0.3481762707233429, 0.11949661374092102, -0.0907006785273552, -0.39893919229507446, -0.08770456165075302, 0.15091606974601746], [-0.22389696538448334, -0.0021557204890996218, -0.16591420769691467, 0.4101967215538025, 0.18707668781280518, 0.16906605660915375], [0.3798447251319885, 0.40281063318252563, -0.19737417995929718, 0.08975822478532791, 0.3783246576786041, 0.10660921782255173], [0.4329909682273865, 0.34185609221458435, -0.25476354360580444, 0.19852830469608307, 0.3028565049171448, 0.1384643316268921], [-0.5303546786308289, 0.0092843072488904, 0.3865121603012085, 0.20202183723449707, 0.08436405658721924, -0.0440286286175251], [0.3559799790382385, 0.4693889915943146, -0.09202829748392105, 0.20084990561008453, 0.32801109552383423, -0.04546409845352173], [-0.01863311231136322, 0.11472504585981369, 0.46418657898902893, 0.25435295701026917, 0.22306692600250244, 0.10863582789897919], [0.0295456163585186, -0.058766987174749374, 0.03860536962747574, -0.306038498878479, -0.10505957156419754, -0.31639984250068665], [-0.26495909690856934, 0.6560412645339966, -0.29725682735443115, 0.027701929211616516, -0.23005765676498413, 0.09134135395288467], [-0.06168050318956375, -0.42471662163734436, -0.6144630312919617, 0.26296481490135193, 0.1315229833126068, -0.40497589111328125], [-0.2815050482749939, -0.5464577078819275, -0.37560728192329407, -0.2613844573497772, 0.0333021841943264, -0.3775641918182373], [-0.10681397467851639, -0.22447724640369415, 0.15180447697639465, -0.39624765515327454, 0.14078359305858612, -0.12048260867595673], [-0.33935561776161194, 0.1430162638425827, 0.3390876054763794, 0.1680273413658142, -0.9071643352508545, -0.07964549958705902], [0.04779433459043503, 0.20827420055866241, -0.06788824498653412, -0.4156430661678314, -0.3947696089744568, 0.1502450555562973], [-0.3013906478881836, -0.40061497688293457, -0.15701037645339966, -0.4149130880832672, 0.20613467693328857, 0.11779722571372986], [-0.260405033826828, 0.3345251977443695, 0.5055559277534485, 0.08421439677476883, 0.02296365797519684, -0.06396859139204025], [-0.21896614134311676, 0.3475494384765625, 0.5752549767494202, -0.2105960249900818, -0.15471769869327545, -0.32717767357826233], [-0.20488935708999634, 0.24427838623523712, 0.2433142215013504, -0.03743423894047737, -0.333303302526474, 0.16893187165260315], [-0.3400079905986786, -0.25623074173927307, -0.22450819611549377, 0.21094636619091034, 0.026904271915555, 0.00996798649430275], [0.3758545219898224, 0.2289516031742096, -0.5716522932052612, 0.1942102611064911, 0.20802265405654907, 0.4119713008403778], [-0.2503882348537445, 0.09839024394750595, 0.14364273846149445, 0.05931440740823746, -0.15614071488380432, 0.29120108485221863], [0.3160884976387024, 0.43236956000328064, -0.2573905289173126, 0.2574101686477661, 0.39221012592315674, -0.26231667399406433], [-0.050709959119558334, 0.08683863282203674, -0.7505052089691162, 0.08188458532094955, -0.7124952077865601, -0.05425223335623741], [-0.4890308082103729, 0.16756504774093628, -0.09744437783956528, -0.008098132908344269, -0.350951224565506, -0.30441099405288696], [0.47486424446105957, 0.14678145945072174, -0.13728545606136322, -0.36167165637016296, 0.21230286359786987, 0.18580828607082367], [-0.28559610247612, 0.05543176829814911, 0.9912768602371216, -0.02444203570485115, 0.05906688794493675, -0.19136229157447815], [0.14438961446285248, 0.19640935957431793, -0.32704490423202515, -0.20718072354793549, -0.19683997333049774, 0.3748243451118469], [-0.23397329449653625, -0.0251013096421957, -0.6114436388015747, -0.019779527559876442, 0.14308083057403564, -0.08490562438964844], [-0.15671972930431366, 0.2802840769290924, 0.5553199648857117, -0.04344864562153816, 0.40320417284965515, 0.28188472986221313], [0.03538430482149124, 0.04899986833333969, -0.13047727942466736, -0.29518675804138184, -0.022152511402964592, -0.3919670283794403], [0.13541576266288757, -0.14513346552848816, 0.4157481789588928, -0.04246027022600174, 0.09687932580709457, -0.25053951144218445], [-0.49355679750442505, 0.10842195898294449, -0.43116074800491333, 0.11618200689554214, 0.33486440777778625, -0.1576816886663437], [0.18200869858264923, 0.4994630515575409, -0.052904531359672546, 0.13814225792884827, 0.4117726981639862, 0.033056240528821945], [-0.2835822105407715, 0.11554504185914993, 0.3957044780254364, 0.42656585574150085, -0.051438674330711365, -0.38648492097854614], [-0.7340688109397888, -0.08189347386360168, -0.49794068932533264, -0.00020512149785645306, -0.18386755883693695, -0.03843754157423973], [0.40001410245895386, -0.11412224918603897, 0.03101125918328762, -0.3868614137172699, -0.26486292481422424, 0.16061444580554962], [-0.6080524325370789, -0.35713276267051697, -0.3599807620048523, -0.2887188792228699, -0.23626607656478882, -0.1788516342639923], [0.0064049470238387585, 0.3029228746891022, 0.09641776978969574, -0.2828401029109955, 0.3391561210155487, 0.08906099200248718], [-0.12197551131248474, -0.47928524017333984, -0.011473895981907845, 0.2662806510925293, -0.21332386136054993, 0.3187238872051239], [-0.3076145350933075, -0.4397948980331421, -0.10777167975902557, 0.34981176257133484, -0.3739100992679596, 0.24168603122234344], [0.5819765329360962, -0.25556012988090515, 0.24194024503231049, 0.3511721193790436, 0.06382887810468674, 0.0765916258096695], [0.40194207429885864, -0.24017645418643951, -0.0728582814335823, -0.13376358151435852, -0.2996407449245453, -0.4494306445121765], [0.43896740674972534, -0.23380479216575623, -0.4541046917438507, -0.2888006269931793, -0.10955173522233963, -0.017695020884275436], [-0.014635567553341389, 0.12851883471012115, 0.1843208223581314, -0.22978012263774872, -0.12482081353664398, 0.3253558278083801], [0.5202417373657227, 0.30092310905456543, 0.46453413367271423, 0.3226328492164612, 0.05821641907095909, 0.24483196437358856], [-0.484099417924881, 0.21478797495365143, 0.053939759731292725, -0.272976815700531, 0.15992499887943268, 0.0066499263048172], [-0.3837178349494934, -0.02043437957763672, 0.45217734575271606, -0.18324102461338043, 0.24561941623687744, 0.13638100028038025], [0.09000984579324722, -0.4381105899810791, -0.002163076540455222, 0.04964732751250267, -0.4068657457828522, 0.005547164473682642], [-0.3901040554046631, 0.2586166262626648, -0.2598651647567749, 0.11092708259820938, 0.11381185799837112, -0.30893537402153015], [0.34154072403907776, 0.27106401324272156, -0.3605397045612335, 0.12059343606233597, -0.037832871079444885, -0.2738165557384491], [0.4716997742652893, 0.6818878054618835, 0.33804816007614136, 0.2004428207874298, -0.27304166555404663, 0.24327413737773895], [-0.18234287202358246, -0.21747519075870514, 0.3184039294719696, -0.40627342462539673, 0.08399660885334015, -0.14161577820777893], [0.21779121458530426, 0.4065883159637451, -0.5894701480865479, -0.09540490061044693, -0.38346922397613525, -0.4954391121864319], [-0.3770332932472229, -0.32125774025917053, -0.49518588185310364, 0.35950803756713867, -0.3011325001716614, 0.19801123440265656], [-0.29725635051727295, -0.22747115790843964, -0.3534516394138336, -0.3713003098964691, 0.08017394691705704, -0.09465955197811127], [-0.31255632638931274, 0.38311177492141724, -0.4716351330280304, -0.2371981143951416, -0.23682092130184174, -0.27460911870002747], [0.4826279282569885, -0.20821964740753174, -0.47172629833221436, 0.23835299909114838, -0.01318178977817297, -0.26467543840408325], [-0.3566608130931854, 0.07045469433069229, 0.04338093474507332, 0.459870308637619, -0.38380277156829834, -0.35274264216423035], [-0.32825812697410583, -0.28991714119911194, 0.3451448976993561, -0.22800613939762115, 0.06524012237787247, 0.19978263974189758], [-0.5215852856636047, 0.4158519506454468, 0.5615770816802979, -0.03107008896768093, 0.059661541134119034, 0.01791464164853096], [0.01781419664621353, 0.091985784471035, 0.26245763897895813, -0.15537670254707336, -0.20191244781017303, -0.1411735713481903], [0.15266866981983185, -0.431017130613327, -0.47442272305488586, -0.4239552617073059, -0.0013221856206655502, -0.3577568531036377], [0.41891080141067505, 0.05619485676288605, 0.47141537070274353, 0.34497717022895813, 0.39531606435775757, -0.1362261325120926], [0.5350246429443359, 0.05970181152224541, 0.1061834916472435, -0.2658516466617584, -0.34873607754707336, -0.09808626025915146], [-0.40397870540618896, 0.15641213953495026, -0.2544877529144287, -0.4160090982913971, 0.06177786365151405, 0.2702690660953522], [0.5481330752372742, -0.3792274296283722, -0.08120591938495636, 0.013380198739469051, 0.0011323883663862944, 0.002506379969418049], [0.12072056531906128, -0.1303645819425583, -0.10726173222064972, 0.11955104768276215, -0.297073632478714, 0.02510644495487213], [-0.3084280788898468, -0.06772824376821518, 0.004008540417999029, 0.39448752999305725, 0.30445054173469543, -0.22812996804714203], [-0.0546129047870636, 0.2873590588569641, -0.5324746370315552, 0.43496808409690857, -0.3691833019256592, -0.4187767803668976], [-0.269655704498291, -0.41192084550857544, 0.3001976013183594, 0.10303560644388199, 0.13952407240867615, -0.01477209385484457], [-0.4229707717895508, -0.1498199999332428, 0.6641761660575867, 0.14853757619857788, 0.01859882101416588, 0.2584545910358429], [0.027707217261195183, -0.5870950818061829, -0.3587528467178345, -0.1668536216020584, -0.36291879415512085, -0.37207895517349243], [-0.1343977451324463, -0.07885324954986572, -0.4988599717617035, -0.3000815510749817, 0.330096036195755, -0.08087928593158722], [0.6150578856468201, -0.27801933884620667, 0.5865224003791809, 0.3612145781517029, -0.05998396873474121, 0.3376910984516144], [-0.177273690700531, -0.05023977532982826, 0.2156132608652115, -0.4048387408256531, 0.0314958430826664, 0.4112212061882019]], "fc1.bias": [-0.3031788170337677, 0.22311662137508392, -0.1529579609632492, 0.09053415805101395, -0.17515340447425842, -0.28934451937675476, 0.10131596773862839, 0.24577181041240692, -0.3807160258293152, -0.053367894142866135, -0.15834198892116547, 0.2319042831659317, -0.09622739255428314, 0.24518686532974243, -0.055802736431360245, -0.21852970123291016, 0.20462439954280853, -0.06366599351167679, -0.11178284138441086, -0.09355103969573975, -0.28429725766181946, -0.19955570995807648, -0.1704784780740738, 0.3522568643093109, 0.14160342514514923, 0.15775670111179352, -0.037173181772232056, -0.30067119002342224, -0.19850698113441467, -0.2721487879753113, -0.02394125424325466, 0.05478596314787865, -0.045819297432899475, 0.06071297079324722, 0.31774765253067017, -0.39221733808517456, 0.23171041905879974, -0.08143115788698196, -0.34704598784446716, 0.09881410002708435, -0.13207077980041504, -0.2506507933139801, -0.05686104670166969, 0.31595578789711, -0.08287413418292999, -0.07574840635061264, 0.2659195065498352, 0.15018893778324127, 0.09533271193504333, 0.03734942525625229, 0.32843145728111267, 0.15244978666305542, 0.17969150841236115, 0.11797413975000381, -0.30189988017082214, 0.10934421420097351, 0.0293651781976223, -0.12014982104301453, -0.2940225899219513, 0.11397220194339752, 0.25826534628868103, -0.14215093851089478, -0.18377374112606049, -0.06780605763196945, 0.10330568253993988, -0.07557597756385803, -0.21558600664138794, 0.2368309646844864, 0.30250421166419983, 0.17766158282756805, 0.15696032345294952, 0.19901439547538757, -0.34289517998695374, -0.03913110867142677, 0.11699672043323517, -0.18776296079158783, 0.08334706723690033, -0.19379712641239166, 0.23751157522201538, 0.19429995119571686, -0.11459854245185852, 0.366504430770874, -0.23546980321407318, 0.2566627264022827, 0.38167160749435425, -0.20726752281188965, -0.11570868641138077, 0.2099003940820694, -0.06542594730854034, 0.23395319283008575, 0.13678421080112457, 0.43063706159591675, 0.2570294439792633, -0.03642969951033592, 0.011688709259033203, 0.3811118006706238, 0.018643047660589218, -0.25146064162254333, -0.1351267695426941, -0.23328375816345215, 0.3855648636817932, 0.20613175630569458, 0.043091751635074615, -0.2640829086303711, 0.05228548124432564, 0.37176278233528137, -0.217438742518425, 0.24499818682670593, 0.14515778422355652, 0.02613011933863163, -0.24352122843265533, -0.0479513444006443, -0.2525661289691925, 0.33592331409454346, -0.23327016830444336, 0.18952739238739014, -0.09338768571615219, -0.16958823800086975, 0.2321581244468689, 0.2766857445240021, -0.2900538444519043, 0.26518213748931885, 0.31982725858688354, 0.35283103585243225, 0.36270958185195923, 0.36361977458000183, 0.0683610737323761, -0.26884788274765015], "fc2.weight": [[-0.07192163914442062, 0.01717112772166729, -0.02261381223797798, 0.024258671328425407, 0.06088358163833618, -0.19792111217975616, 0.12256520241498947, 0.10820932686328888, -0.28419747948646545, 0.05408676341176033, -0.01620815508067608, 0.07183092832565308, 0.10072749108076096, 0.03407381847500801, 0.05095686390995979, -0.15359583497047424, 0.012077187187969685, 0.07768432050943375, 0.015829645097255707, -0.18378004431724548, 0.05308578535914421, -0.06345570832490921, 0.037691280245780945, -0.032925352454185486, -0.021187784150242805, 0.098236583173275, 0.03229985758662224, -0.24091458320617676, 0.007047639228403568, 0.1253049522638321, 0.03433448448777199, 0.08203532546758652, 0.11713499575853348, 0.04675006493926048, 0.08960111439228058, 0.01760484278202057, 0.07071607559919357, -0.09371165931224823, -0.10863836854696274, 0.11757878959178925, -0.058538999408483505, -0.2392333447933197, 0.002702082274481654, 0.055439986288547516, 0.03286508843302727, 0.018909383565187454, -0.01988852582871914, 0.09632997214794159, -0.08785150945186615, 0.0032817355822771788, 0.04420895129442215, 0.21388934552669525, 0.03253639116883278, 0.057249464094638824, 0.1547110378742218, -0.040440045297145844, 0.008586648851633072, -0.0929962545633316, -0.032635897397994995, -0.02781658060848713, -0.033421389758586884, 0.030743708834052086, 0.006849539931863546, -0.27358579635620117, -0.0637948289513588, -0.11256617307662964, 0.04620330035686493, -0.07751666754484177, -0.014164953492581844, 0.10142339766025543, 0.027050238102674484, -0.062089987099170685, 0.20083394646644592, 0.16678079962730408, 0.10226321965456009, 0.1555294394493103, 0.07541249692440033, 0.12133114039897919, 0.10441546887159348, 0.07407193630933762, -0.32164520025253296, -0.0017561092972755432, 0.04456357657909393, 0.03963299095630646, 0.016065893694758415, 0.09606385976076126, 0.15932253003120422, -0.010500222444534302, 0.15311409533023834, -0.0010604294948279858, -0.049327995628118515, 0.10468722879886627, 0.21274760365486145, -0.1191963255405426, 0.05476480349898338, 0.09402409940958023, 0.059529006481170654, -0.1463243067264557, -0.027229012921452522, -0.43261462450027466, 0.027107050642371178, 0.11806096881628036, -0.009445148520171642, -0.08940597623586655, 0.02486957609653473, 0.010874742642045021, 0.18986070156097412, 0.07319375872612, 0.08045130223035812, -0.03228672593832016, 0.007705713156610727, 0.0374266691505909, -0.02504248544573784, -0.002268032869324088, 0.05319388210773468, 0.007007134612649679, -0.01895822398364544, 0.005469907075166702, -0.20008477568626404, 0.06329750269651413, 0.10034771263599396, 0.01951451227068901, -0.04275929555296898, 0.015622010454535484, -0.0414511114358902, 0.061604585498571396, 0.10292883962392807, 0.13694605231285095], [0.03701158985495567, 0.02318428084254265, -0.03237353265285492, 0.058380428701639175, -0.011585281230509281, 0.06188284605741501, 0.015022415667772293, -0.06375689804553986, 0.0048115733079612255, 0.018332989886403084, 0.07731971889734268, 0.005573995877057314, -0.09207666665315628, -0.03165729343891144, -0.011353842914104462, 0.04003341123461723, -0.05101659521460533, -0.07839129120111465, -0.06674925237894058, 0.035675086081027985, -0.03461110219359398, -0.04543339088559151, -0.06520189344882965, 0.02280513569712639, 0.01507128868252039, 0.014357545413076878, -0.07677663862705231, -0.08928053826093674, -0.010987740941345692, 0.035650573670864105, -0.01424937229603529, 0.07147243618965149, -0.08938390761613846, 0.02401929348707199, -0.042347993701696396, -0.08513394743204117, 0.03218619152903557, -0.009303085505962372, 0.04183907061815262, -0.055662475526332855, -0.053230684250593185, 0.0448833629488945, -0.0910080075263977, -0.07312045991420746, -0.04838836193084717, -0.05283736065030098, -0.02952188439667225, 0.01685504987835884, -0.0702093169093132, -0.026512453332543373, 0.026220615953207016, 0.057285916060209274, -0.088892862200737, -0.025116819888353348, -0.039720162749290466, -0.07492975890636444, -0.06888192892074585, -0.031804367899894714, -0.02621380239725113, -0.00530288927257061, -0.004216046072542667, 0.06858870387077332, 0.03507859259843826, 0.07651600986719131, 0.06822840124368668, -0.07236780226230621, 0.05649768188595772, 0.05840332806110382, -0.05227268859744072, 0.06306500732898712, -0.08279106765985489, 0.05422309413552284, -0.09470314532518387, 0.07745086401700974, -0.05100615322589874, 0.049868155270814896, -0.04651946201920509, 0.049671921879053116, 0.009384372271597385, 0.002169498009607196, -0.07153397053480148, 0.01045832596719265, 0.0667107030749321, -0.07790271937847137, -0.021048346534371376, -0.02008054219186306, 0.059507064521312714, -0.002220890950411558, -0.034261271357536316, -0.020550193265080452, -0.03356466814875603, 0.05084711313247681, -0.03804722800850868, -0.07695198804140091, 0.06354701519012451, -0.06640498340129852, -0.00602020975202322, -0.051572464406490326, 0.011879777535796165, 0.07913316786289215, -0.040458448231220245, -0.02864171750843525, -0.06933772563934326, -0.08300436288118362, -0.007231573108583689, -0.0852489173412323, -0.06565684825181961, -0.03317786753177643, 0.03657019883394241, -0.023426638916134834, -0.06592482328414917, -0.050632137805223465, -0.08251039683818817, 0.07449115812778473, -0.054905056953430176, -0.043940939009189606, 0.06482125073671341, -0.06868194043636322, 0.02506115287542343, -0.027124060317873955, 0.043061815202236176, -0.039018478244543076, -0.02820669487118721, -0.028174662962555885, -0.07620161026716232, 0.011776571162045002, -0.06334821879863739, -0.04336920753121376], [0.0344465933740139, 0.07363574206829071, -0.035326793789863586, 0.01780540682375431, 0.07596364617347717, 0.040591318160295486, 0.023295145481824875, 0.050826217979192734, -0.030053507536649704, -0.06758950650691986, -0.038101211190223694, -0.01756771095097065, 0.022091493010520935, 0.06015130132436752, -0.10920338332653046, -0.0020838568452745676, 0.019247369840741158, -0.020914502441883087, 0.02538367733359337, 0.0619908906519413, 0.043938279151916504, 0.03468248248100281, 0.028660712763667107, 0.02632216177880764, -0.04290922358632088, -0.015384119935333729, 0.00535040395334363, 0.029115209355950356, -0.08931552618741989, 0.02149900421500206, -0.05327153205871582, -0.021000642329454422, -0.08820001780986786, -0.06711414456367493, 0.046206098049879074, 0.08324245363473892, 0.02570689655840397, -0.0024627987295389175, -0.015874337404966354, 0.09018191695213318, 0.06155507266521454, 0.012287869118154049, -0.053060971200466156, 0.0019371651578694582, -0.09881993383169174, 0.0423707440495491, -0.07205666601657867, -0.04449935257434845, -0.030343012884259224, 0.04774684086441994, -0.05487307906150818, -0.09670458734035492, 0.06879548728466034, -0.04926053807139397, 0.07293292880058289, -0.0791211947798729, -0.07210507988929749, 0.06502880156040192, -0.02701437473297119, -0.052116990089416504, -0.005944846663624048, -0.07371126860380173, -0.08957669883966446, 0.043024878948926926, -0.06725167483091354, 0.05618903040885925, 0.0404968187212944, -0.013789954595267773, 0.02915242873132229, 0.057078827172517776, 0.007707546465098858, 0.05859091505408287, -0.08624517917633057, -0.07241015881299973, -0.0636921375989914, -0.022288495674729347, 0.025265470147132874, -0.023515542969107628, -0.06374263763427734, 0.002061567734926939, -0.09869010746479034, -0.03216865286231041, -0.08982403576374054, 0.06755614280700684, 0.035756953060626984, 0.07003231346607208, -0.019879043102264404, -0.06472516059875488, -0.03125711902976036, -0.030583852902054787, -0.06201205030083656, -0.08628802001476288, 0.01588594913482666, 0.04547746852040291, 0.016617359593510628, 0.034435100853443146, -0.08476515859365463, -0.06627944111824036, -0.009680268354713917, -0.003617403330281377, -0.05831177905201912, 0.019440118223428726, -0.0720859095454216, -0.035676129162311554, 0.0496528185904026, 0.06195903569459915, 0.0012152359122410417, 0.030680600553750992, -0.020545125007629395, -0.0627727136015892, -0.0938497856259346, -0.0563083216547966, 0.04538382962346077, 0.03130781650543213, 0.00460087088868022, 0.04076872766017914, -0.06395934522151947, -0.040478698909282684, -0.07368601113557816, 0.05986669659614563, 0.047219306230545044, -0.05720549449324608, -0.10109390318393707, -0.04450373351573944, 0.031966373324394226, -0.01823204755783081, -0.036482103168964386, -0.031349554657936096], [-0.0015573129057884216, 0.03926122188568115, 0.08338901400566101, -0.024065181612968445, 0.07219814509153366, -0.024275794625282288, -0.06393451243638992, -0.0877365693449974, 0.02966797910630703, 0.04222048074007034, -0.015655474737286568, 0.08000985532999039, -0.01796261966228485, -0.07388918846845627, 0.05686641484498978, 0.026334483176469803, -0.034422941505908966, 0.07918110489845276, 0.08270564675331116, 0.04850358888506889, -0.010295018553733826, 0.03767308220267296, 0.01556512899696827, -0.025938458740711212, -0.060325562953948975, 0.004653121344745159, 0.04719896242022514, 0.022529609501361847, -0.030120760202407837, 0.07616904377937317, 0.01336250826716423, -0.031916387379169464, -0.021128183230757713, -0.02789623849093914, 0.06664147228002548, 0.018874235451221466, -0.08194804936647415, 0.0028797462582588196, -0.04823077842593193, 0.038861993700265884, 0.05885816738009453, -0.07792551815509796, -0.07504185289144516, -0.02823375165462494, 0.007126571144908667, -0.06939202547073364, -0.07495366781949997, 0.049541838467121124, -0.058586254715919495, -0.07466468214988708, -0.022492919117212296, -0.029599767178297043, -0.028127726167440414, -0.06095545366406441, -0.04697627201676369, 0.03206987679004669, 0.08189019560813904, 0.05235833674669266, 0.056954145431518555, -0.004788520280271769, -0.03749458119273186, -0.004622235894203186, -0.05527763441205025, -0.04760998487472534, -0.07839027792215347, 0.0656970664858818, 0.04593614116311073, -0.07953933626413345, -0.0009021045989356935, 0.0693957507610321, -0.00178423966281116, 0.059970464557409286, 0.04010094329714775, 0.045561209321022034, 0.061090197414159775, -0.041597358882427216, 0.03312990814447403, -0.055290576070547104, 0.05880009010434151, -0.033424485474824905, 0.08767949044704437, -0.042259372770786285, 0.03323438763618469, 0.035893332213163376, -0.08105231821537018, -0.0659877359867096, 0.054633088409900665, -0.052162740379571915, -0.07648900896310806, -0.07160821557044983, -0.04069206863641739, -0.06839289516210556, -0.0033214986324310303, -0.04380061477422714, -0.08033055067062378, 0.06912227720022202, -0.025052111595869064, -0.07590021193027496, -0.08789975941181183, 0.005889268592000008, 0.0322614423930645, -0.0856422409415245, -0.03354519233107567, -0.08662768453359604, -0.020876333117485046, 0.022468583658337593, 0.060012154281139374, -0.016753342002630234, -0.06687609851360321, 0.03789535537362099, -0.0320550799369812, -0.04713796079158783, 0.04262149706482887, -0.06045009195804596, -0.03740790858864784, -0.008896647952497005, 0.0031504854559898376, 0.04225323721766472, -0.07084894180297852, 0.020716268569231033, 0.07729676365852356, 0.033816128969192505, -0.009653198532760143, -0.008997291326522827, -0.0753033384680748, -0.01844382844865322, -0.06298954039812088, 0.07030221074819565], [0.09059671312570572, 0.06768696755170822, 0.1582108587026596, 0.05880293250083923, 0.06218988075852394, 0.18660646677017212, 0.15061712265014648, -0.07100939005613327, 0.2752138674259186, 0.07699381560087204, 0.047334954142570496, 0.027048300951719284, -0.06518600881099701, 0.07767264544963837, 0.003373451065272093, -0.027217375114560127, -0.008615059778094292, -0.031535372138023376, -0.07245101779699326, 0.175313800573349, 0.07803800702095032, 0.16439227759838104, 0.09014787524938583, 0.08984732627868652, 0.15273407101631165, -0.011208080686628819, -0.03197389468550682, -0.024905091151595116, -0.05250167101621628, 0.030155815184116364, 0.00267199520021677, -0.05257897078990936, 0.006578411906957626, 0.14188851416110992, 0.034301478415727615, -0.0140824094414711, 0.09534703940153122, 0.10264785587787628, 0.013159760273993015, -0.07437261939048767, 0.07572659105062485, -0.004958887584507465, 0.0796026811003685, 0.043868668377399445, -0.06807412952184677, -0.027769947424530983, 0.001692077610641718, -0.015587510541081429, 0.03249097242951393, 0.18982847034931183, 0.05073946341872215, 0.18546739220619202, 0.039133477956056595, -0.07817061990499496, 0.021256865933537483, -0.0488782562315464, 0.001231231028214097, 0.056016746908426285, 0.1691286712884903, 0.0544133335351944, -0.07572770863771439, 0.07964148372411728, 0.039124660193920135, 0.27763086557388306, 0.07563905417919159, -0.006214037537574768, -0.05406190827488899, -0.06928597390651703, 0.05588230863213539, -0.024683630093932152, -0.05326833575963974, -0.08118796348571777, 0.06223120540380478, -0.10754868388175964, 0.05587347224354744, -0.10005418211221695, -0.07384109497070312, 0.03006516769528389, -0.04661538079380989, -0.11075285077095032, 0.09313296526670456, 0.026763562113046646, -0.12038090080022812, 0.011766056530177593, 0.03361494839191437, 0.04869502782821655, 0.016420090571045876, 0.0839373767375946, 0.02333028055727482, 0.14112254977226257, 0.00273072998970747, 0.0024611307308077812, -0.06492022424936295, 0.04547641798853874, -0.035435549914836884, 0.04228755086660385, 0.02926834113895893, -0.0642012506723404, 0.18000364303588867, 0.04076419770717621, 0.17233382165431976, 0.03973441570997238, 0.004498264752328396, 0.022994011640548706, -0.028115203604102135, 0.016084274277091026, 0.008997964672744274, -0.03754148259758949, 0.057155951857566833, 0.20876480638980865, 0.012606214731931686, 0.20283789932727814, 0.2999644875526428, -0.04416665807366371, 0.05040886998176575, 0.027289802208542824, -0.09013516455888748, 0.035876642912626266, 0.15023863315582275, 0.005049742292612791, 0.038205742835998535, -0.0863967314362526, 0.11986900866031647, 0.04237063229084015, -0.02968328446149826, 0.08037297427654266, 0.02723635733127594, 0.03768770396709442], [-0.02681438811123371, 0.05137152969837189, 0.0653785988688469, 0.002481060102581978, 0.04759513586759567, -0.0351540744304657, 0.02355710230767727, -0.09837832301855087, 0.06992816925048828, -0.058742690831422806, -0.00042755992035381496, -0.022488422691822052, -0.031566329300403595, 0.08135703206062317, -0.039625249803066254, -0.02692544087767601, -0.07280876487493515, 0.008751992136240005, -0.005776688922196627, -0.06699731200933456, -0.02493450790643692, -0.08232720196247101, -0.04174866899847984, -0.007062912452965975, 0.028170110657811165, -0.07880020141601562, -0.05062547326087952, 0.02439349703490734, -0.01639401726424694, -0.033620480448007584, 0.06476311385631561, -0.02925751358270645, -0.08904704451560974, -0.0310530886054039, -0.05852534621953964, 0.08608186990022659, 0.06958100944757462, -0.02268795110285282, -0.056804269552230835, 0.046655651181936264, 0.005501375533640385, 0.00810686033219099, -0.030351977795362473, -0.050425078719854355, -0.09022785723209381, -0.03231252729892731, 0.03072415105998516, -0.07464493066072464, 0.04791218042373657, -0.044324085116386414, -0.06777264922857285, 0.06725835055112839, -0.042164191603660583, -0.09731526672840118, 0.028821371495723724, -0.08288954943418503, 0.04525833949446678, 0.07165561616420746, 0.07526922225952148, -0.03545759245753288, 0.059486906975507736, -0.07941004633903503, 0.07282200455665588, 0.07087282836437225, -0.023629164323210716, 0.025497904047369957, -0.06305147707462311, -0.0010706305038183928, 0.07136122137308121, 0.008873003534972668, -0.05230286344885826, 0.007651112508028746, -0.035945646464824677, 0.011905982159078121, 0.038039352744817734, 0.03454658389091492, -0.06641367077827454, -0.05072619765996933, -0.024811750277876854, -0.0745406299829483, -0.0058505781926214695, -0.039558250457048416, -0.0860406681895256, 0.07264626771211624, 0.031332749873399734, 0.09717702865600586, -0.05011659488081932, -0.09636513888835907, 0.05676030367612839, -0.047874998301267624, -0.07479273527860641, -0.0520094595849514, 0.007614212576299906, -0.034382786601781845, -0.015853658318519592, -0.03819569572806358, 0.04972107708454132, 0.010344037786126137, 0.025471072643995285, -0.046087510883808136, 0.054042257368564606, -0.017656419426202774, -0.07881200313568115, -0.07752019912004471, -0.07094943523406982, 0.033503901213407516, 0.06541717052459717, 0.06294851750135422, 0.04575018957257271, -0.043513864278793335, -0.038126204162836075, 0.03818533942103386, 0.026604926213622093, -0.03949596360325813, -0.04445546865463257, -0.08241762965917587, 0.06809066981077194, 0.07233743369579315, 0.0011132267536595464, 0.006787656806409359, 0.0745391696691513, -0.08931004256010056, 0.011656653136014938, -0.03340698033571243, 0.032221198081970215, -0.024386879056692123, 0.051417626440525055, -0.04438081756234169], [0.00398501381278038, -0.001975707011297345, -0.21172218024730682, 0.0846116915345192, -0.03355002775788307, -0.17982013523578644, -0.03174165263772011, 0.052450694143772125, -0.3484407663345337, 0.037028782069683075, -0.020290285348892212, -0.07554836571216583, 0.09410784393548965, 0.03813401237130165, 0.02893531322479248, 0.024203408509492874, -0.048942528665065765, 0.06881097704172134, 0.022851742804050446, -0.149307981133461, -0.0027338217478245497, -0.18170733749866486, -0.04494253545999527, -0.07628920674324036, -0.08624883741140366, 0.05945282429456711, 0.01825210452079773, -0.0180837232619524, 0.11201486736536026, -0.04511423408985138, 0.01698218658566475, -0.0191185362637043, 0.10123014450073242, -0.10592666268348694, 0.054574768990278244, 0.06756355613470078, 0.07662677019834518, 0.018529949709773064, -0.08596017956733704, 0.08964639902114868, -0.0382150299847126, 0.06503844261169434, -0.16948005557060242, 0.09846927225589752, -0.01607365347445011, 0.016990840435028076, -0.022516097873449326, -0.043214645236730576, -0.04768941551446915, -0.18534345924854279, 0.06856141239404678, -0.17909911274909973, 0.029212573543190956, 0.04652688652276993, -0.0033025590237230062, -0.018649442121386528, -0.026771727949380875, -0.1802503615617752, 0.011397004127502441, 0.0760745108127594, 0.05378761887550354, -0.14117662608623505, 0.030469724908471107, -0.19245435297489166, -0.018880929797887802, 0.05383555218577385, -0.0338541679084301, 0.10271789878606796, -0.05260194465517998, -0.031326331198215485, -0.05457962304353714, -0.013531569391489029, 0.07396610826253891, 0.02087610401213169, 0.08397399634122849, 0.24611100554466248, 0.054553594440221786, -0.006796537432819605, 0.006212068255990744, 0.029584622010588646, -0.06265130639076233, 0.05052606388926506, -0.017749810591340065, -0.03172556683421135, 0.04044728726148605, 0.08595386892557144, -0.054763708263635635, -0.14834100008010864, -0.015035439282655716, -0.006154175382107496, 0.0934455394744873, -0.058111902326345444, -0.011999121867120266, -0.13616438210010529, 0.05360442399978638, 0.07437071204185486, -0.07061048597097397, 0.016254235059022903, -0.08258571475744247, -0.02064499817788601, -0.09660953283309937, -0.028486596420407295, -0.013496162369847298, 0.037706609815359116, 0.08130719512701035, -0.013905191794037819, 0.06090854853391647, 0.08544468134641647, -0.04213852807879448, -0.0007941108196973801, 0.07782558351755142, -0.20577408373355865, -0.2208881825208664, 0.025187138468027115, 0.011420308612287045, -0.05354016274213791, 0.005191020667552948, 0.021790364757180214, -0.1421973556280136, -0.0077104163356125355, 0.039252374321222305, -0.07863716781139374, 0.054104991257190704, 0.02174038253724575, 0.045736461877822876, -0.028485041111707687, 0.042267028242349625, 0.08848966658115387], [-0.11450127512216568, 0.012486475519835949, -0.20135463774204254, -0.044822294265031815, 0.0165417417883873, -0.3460717797279358, -0.15113845467567444, -0.00023055190104059875, -0.21065574884414673, 0.0770554319024086, -0.06441987305879593, -0.08580557256937027, 0.06671394407749176, 0.07643777877092361, 0.028553694486618042, 0.07244371622800827, 0.02805488556623459, -0.032522909343242645, 0.11068180203437805, -0.11644458025693893, 0.005897654686123133, -0.07233386486768723, 0.03571227565407753, 0.06259555369615555, -0.07368619740009308, 0.03240378201007843, 0.06381654739379883, -0.1504705846309662, 0.06813308596611023, 0.04156079143285751, -0.038852788507938385, -0.002459613373503089, 0.0760074183344841, 0.055196985602378845, 0.05218272656202316, 0.015979059040546417, 0.09299853444099426, 0.09165627509355545, -0.03821905702352524, 0.045484546571969986, 0.08355811983346939, 0.025283606722950935, -0.12944380939006805, 0.08816846460103989, -0.06158449128270149, -0.002600323408842087, 0.038498297333717346, 0.03132149949669838, -0.1030535027384758, -0.11003433167934418, 0.003304793732240796, -0.12538503110408783, -0.02830089069902897, -0.01988494023680687, 0.05218730494379997, 0.09652438759803772, 0.1016903892159462, -0.08509057760238647, -0.12343859672546387, 0.09345468878746033, -0.06832175701856613, -0.0010296852560713887, -0.1089978888630867, -0.1341540366411209, 0.08441106230020523, 0.040829483419656754, -0.003799502970650792, 0.07290390878915787, -0.04241108149290085, 0.03594023361802101, -0.026970136910676956, -0.04936287924647331, -0.02589465118944645, 0.04439441114664078, 0.09836079925298691, -0.013805240392684937, 0.11042078584432602, 0.1064019650220871, 0.02106320671737194, 0.012693256139755249, -0.04264996573328972, -0.014905989170074463, 0.12934808433055878, -0.04235980659723282, 0.07429874688386917, -0.00246149068698287, -0.0032387408427894115, -0.17988240718841553, 0.059411242604255676, -0.13481727242469788, 0.08082297444343567, 0.12310685962438583, -0.039243753999471664, -0.056477274745702744, 0.04723618924617767, -0.060092609375715256, 0.006520487833768129, -0.01793527789413929, -0.15975937247276306, -0.18883278965950012, -0.13020583987236023, 0.022251097485423088, -0.08080276101827621, -0.03774473816156387, -0.004512489307671785, -0.07800870388746262, 0.005107870325446129, -0.05864464491605759, -0.12888425588607788, -0.07519988715648651, -0.007558902259916067, -0.17759793996810913, -0.27122557163238525, 0.0675349086523056, -0.32250264286994934, -0.011010619811713696, 0.1361788958311081, -0.013690195977687836, -0.0522594079375267, 0.07431904971599579, 0.1077454686164856, -0.029738374054431915, -0.006755940616130829, -0.02046554908156395, -0.045718736946582794, -0.03744461387395859, 0.0045328508131206036, 0.14189667999744415], [0.17814823985099792, -0.06163114681839943, -0.07725988328456879, -0.013587595894932747, -0.006821074988692999, -0.08933736383914948, -0.037033017724752426, -0.010193697176873684, -0.3171588182449341, 0.1710553914308548, -0.05030085891485214, -0.06432469934225082, 0.028883006423711777, 0.026655476540327072, -0.027250733226537704, 0.12583720684051514, 0.04876610264182091, -0.008883349597454071, 0.12619544565677643, -0.03187758848071098, 0.05185310170054436, -0.15029045939445496, 0.05074691027402878, 0.054948125034570694, 0.02832403965294361, -0.05725310742855072, -0.051575176417827606, -0.013152962550520897, -0.024116210639476776, -0.07223058491945267, -0.07161115109920502, 0.004658881574869156, 0.09958991408348083, 0.020803077146410942, 0.052956994622945786, 0.06936270743608475, 0.06397628039121628, 0.042532578110694885, 0.3063979744911194, 0.09140525758266449, 0.052405864000320435, 0.03520337864756584, -0.11466912180185318, 0.05043278634548187, -0.07854318618774414, -0.0497451014816761, 0.07771240174770355, -0.018313249573111534, -0.11740977317094803, -0.13282012939453125, 0.05651197209954262, -0.10672720521688461, 0.038588184863328934, -0.05818966403603554, -0.06380224972963333, -0.05227344110608101, -0.032275885343551636, -0.1131487637758255, -0.0951426774263382, 0.06513184309005737, 0.010813121683895588, -0.12834906578063965, -0.05946078151464462, -0.14673903584480286, -0.05083668604493141, 0.1286059021949768, 0.0892401859164238, -0.016186190769076347, -0.07168006896972656, 0.08040548115968704, 0.12448542565107346, -0.10295302420854568, 0.02929620072245598, 0.04108342155814171, -0.02899792790412903, -0.3051210045814514, 0.06479530036449432, 0.05840171501040459, -0.0003424612514209002, -0.03369613364338875, -0.11046277731657028, -0.014078488573431969, -0.0623541995882988, -0.01149443443864584, 0.06513810902833939, 0.030350742861628532, 0.11213099211454391, -0.0642729327082634, 0.08240027725696564, 0.00850536860525608, 0.09944888949394226, 0.039749182760715485, 0.02912093512713909, -0.13979823887348175, -0.06660693883895874, -0.06951091438531876, -0.012377951294183731, 0.048977676779031754, -0.1043180450797081, -0.17089810967445374, -0.14240314066410065, 0.06181465834379196, -0.004883767105638981, 0.11808601766824722, 0.08661939203739166, 0.012476854957640171, -0.03728019818663597, 0.021340150386095047, -0.0500478632748127, -0.0459752157330513, 0.0418059304356575, -0.11624449491500854, -0.1574953943490982, 0.03463779762387276, 0.2553698718547821, 0.05868169292807579, -0.06145825982093811, -0.008199545554816723, -0.15983256697654724, 0.03540514037013054, 0.034133873879909515, -0.06991300731897354, -0.02886439859867096, -0.0693114846944809, -0.0889379009604454, -0.052050378173589706, -0.047272689640522, 0.10320179909467697], [-0.1620311439037323, 0.005295599810779095, -0.039732348173856735, 0.07740975171327591, -0.02725687436759472, -0.07780444622039795, 0.05568917840719223, 0.045246925204992294, -0.32339781522750854, 0.03396071493625641, 0.053619369864463806, 0.009393674321472645, 0.10012754797935486, -0.04623865708708763, 0.10355105251073837, -0.07591347396373749, 0.10973270237445831, 0.06444309651851654, 0.054797619581222534, -0.12981437146663666, -0.025727368891239166, -0.0414804182946682, -0.022034477442502975, -0.00039440536056645215, -0.04066137596964836, 0.062063876539468765, -0.02988467924296856, 0.004606943111866713, -0.055405523627996445, 0.04363212361931801, -0.06205306947231293, -0.06733011454343796, 0.06852422654628754, 0.06879368424415588, 0.02416083589196205, 0.05873005837202072, -0.034497760236263275, 0.11937185376882553, -0.012945941649377346, 0.041073061525821686, 0.0500105619430542, -0.3367708921432495, -0.040598660707473755, 0.06080083176493645, 0.02581729181110859, 0.06389100104570389, -0.04049839824438095, 0.00488290237262845, 0.01243054959923029, -0.12425228208303452, -0.027015158906579018, 0.007524488028138876, 0.010070265270769596, 0.024216802790760994, 0.0765577107667923, -0.06017238274216652, -0.04085279256105423, -0.15721972286701202, -0.08099619299173355, -0.0613323375582695, 0.057972248643636703, 0.022995203733444214, 0.008410944603383541, -0.2442963570356369, 0.04807166010141373, -0.10195156186819077, 0.09092273563146591, 0.008617240935564041, 0.07826870679855347, 0.07824933528900146, -0.020928524434566498, 0.06689868867397308, 0.021577702835202217, -0.016208214685320854, 0.04805680736899376, -0.06504932045936584, -0.03619177266955376, 0.0016931312857195735, -0.014043040573596954, 0.0313761904835701, -0.07929771393537521, 0.04040662199258804, -0.011286359280347824, 0.07730022817850113, 0.0054508172906935215, 0.032667722553014755, 0.11194398999214172, -0.057377077639102936, -0.004884805995970964, -0.061291009187698364, 0.005639393348246813, 0.035574693232774734, -0.018036464229226112, -0.040114086121320724, -0.059711143374443054, 0.03172677010297775, 0.025902902707457542, -0.09138111770153046, -0.13516151905059814, -0.09286238998174667, 0.0369945652782917, 0.08918321132659912, -0.0930270180106163, -0.0665343627333641, 0.01681644842028618, -0.01752113364636898, -0.012384357862174511, -0.046951234340667725, 0.053196415305137634, -0.12768062949180603, 0.02478264458477497, -0.044880211353302, -0.11749175935983658, 0.08484350144863129, -0.09508885443210602, 0.06351526081562042, 0.040447499603033066, 0.07014523446559906, -0.03376258537173271, 0.11788628250360489, 0.05574296414852142, -0.013685558922588825, 0.06735838204622269, 0.09720513224601746, -0.009646148420870304, 0.0673404112458229, -0.0417732335627079, 0.009360230527818203], [-0.09771955013275146, -0.07681598514318466, -0.13367655873298645, -0.038791555911302567, -0.007596331648528576, -0.10995657742023468, -0.16452066600322723, 0.07727843523025513, -0.26025474071502686, -0.023212861269712448, 0.06750597059726715, -0.04701597988605499, -0.02816156856715679, 0.09712676703929901, 0.0868205800652504, 0.041166845709085464, -0.048329614102840424, 0.0039483304135501385, 0.12041833251714706, -0.11261816322803497, 0.11156298965215683, -0.1584155261516571, -0.024927476420998573, 0.03065202571451664, -0.08297606557607651, 0.032955702394247055, 0.04579293727874756, -0.041465576738119125, -0.06601117551326752, 0.07534494996070862, -0.008336267434060574, 0.03937062993645668, 0.012932957150042057, -0.04436109960079193, -0.052678849548101425, 0.008353643119335175, 0.08389042317867279, 0.008319734595716, -0.0688062459230423, 0.048130132257938385, 0.05747149512171745, -0.14732593297958374, -0.03673383593559265, -0.04211539030075073, -0.011475460603833199, 0.03756778687238693, 0.03789806738495827, -0.03748812898993492, 0.014760425314307213, -0.12933756411075592, -0.04392370954155922, -0.2162158489227295, 0.03623608499765396, 0.09560532867908478, 0.07434829324483871, -0.05722970515489578, 0.057433925569057465, -0.11741048842668533, -0.14708471298217773, -0.0186738483607769, 0.05454488471150398, -0.06907676160335541, -0.07679971307516098, -0.1749008446931839, 0.11617328971624374, -0.09226252883672714, 0.05362876132130623, 0.06489600986242294, 0.09989883750677109, 0.039052464067935944, -0.03664065897464752, 0.05868595838546753, 0.026771528646349907, 0.05856148526072502, 0.06920608133077621, 0.5352464318275452, -0.01545855775475502, 0.11240939795970917, 0.05499780923128128, 0.016693390905857086, -0.07491481304168701, -0.02205495536327362, 0.061837438493967056, 0.06124015524983406, -0.002317692618817091, 0.029487203806638718, -0.005937220528721809, -0.02803133986890316, 0.011015755124390125, -0.0854010060429573, 0.012534301728010178, 0.013094783760607243, -0.06457088887691498, 0.0014126008609309793, -0.03902413323521614, -0.0057736169546842575, 0.062427107244729996, -0.029010768979787827, -0.04745428264141083, -0.18325844407081604, -0.20663268864154816, 0.08938075602054596, 0.05403618514537811, 0.06749134510755539, 0.0016265963204205036, 0.031051289290189743, -0.10398458689451218, 0.006450476124882698, -0.07499508559703827, -0.05193183198571205, -0.043426625430583954, -0.21649432182312012, -0.2562776207923889, -0.015798553824424744, -0.07040692865848541, 0.04724563658237457, 0.06861527264118195, 0.01762847788631916, -0.05508478358387947, 0.08460719883441925, 0.07568061351776123, -0.012767287902534008, -0.036385491490364075, -0.034926313906908035, -0.07573514431715012, 0.09204394370317459, -0.010531875304877758, 0.03964170068502426], [-0.7111114859580994, 0.032123859971761703, -0.39136072993278503, 0.047924768179655075, 0.0763687789440155, -0.6281871199607849, -0.5371588468551636, 0.05347761884331703, -0.25459524989128113, 0.142985999584198, -0.07458280026912689, 0.08600018918514252, -0.01738768257200718, 0.07586035132408142, 0.24273481965065002, 0.0613936185836792, -0.024847444146871567, 0.0023355174344033003, 0.19781365990638733, -0.2900838255882263, 0.02485199086368084, -0.2517714202404022, 0.019012438133358955, -0.017035137861967087, -0.012143676169216633, 0.06637942045927048, -0.030488833785057068, -0.22813177108764648, 0.2778865694999695, 0.07088074833154678, -0.08846288919448853, 0.03642088547348976, -0.013595988973975182, 0.10930526256561279, -0.03772823140025139, -0.0539817251265049, 0.08840181678533554, 0.08715227246284485, -0.8456112146377563, -0.056092843413352966, 0.09458738565444946, -0.8926263451576233, -0.3726857900619507, -0.0947069451212883, 0.0661255344748497, 0.04813697561621666, 0.037144310772418976, 0.036721497774124146, -0.2733813226222992, -0.05327782407402992, -0.06881971657276154, -0.5675870180130005, 0.004464059602469206, 0.014679874293506145, 0.005140349734574556, -0.09168358892202377, -0.06042874976992607, -0.06394727528095245, -0.22425055503845215, -0.02007191628217697, 0.06383496522903442, 0.021361075341701508, -0.3095543682575226, -0.5781683325767517, 0.16804417967796326, -0.5728374719619751, -0.02172980085015297, 0.14577363431453705, 0.032754454761743546, -0.0009225310641340911, -0.030388791114091873, 0.16398940980434418, 0.14688144624233246, 0.154073104262352, 0.041307881474494934, -0.016337839886546135, 0.12921175360679626, 0.027335843071341515, -0.07668452709913254, 0.04150676354765892, -0.05284177139401436, -0.06068712845444679, 0.025009777396917343, -0.04944954067468643, -0.030607450753450394, -0.010650520212948322, 0.15633077919483185, -0.1602165848016739, 0.2042120099067688, -0.2709452509880066, 0.017388969659805298, 0.15285131335258484, -0.0462501123547554, 0.0030155032873153687, 0.05907895043492317, -0.05482324957847595, -0.14102815091609955, 0.14604707062244415, -0.38672903180122375, 0.2914915382862091, -0.17898091673851013, -0.016692517325282097, -0.2245003879070282, -0.0023163985460996628, 0.03552902117371559, -0.0984761044383049, 0.1554158627986908, 0.027696194127202034, -0.13904832303524017, -0.2858346104621887, 0.1517750471830368, -0.5336084961891174, 0.08645377308130264, -0.014497178606688976, -0.6289196014404297, -0.012074649333953857, 0.1309734731912613, -0.09660020470619202, 0.05982750654220581, 0.027376297861337662, 0.10498418658971786, -0.14543484151363373, 0.05622775852680206, 0.039977263659238815, 0.04331183433532715, 0.0795612782239914, -0.2706746757030487, -0.021011998876929283], [-0.07661783695220947, -0.09917200356721878, -0.07020846754312515, -0.029933132231235504, 0.0020920184906572104, -0.19335106015205383, -0.08959412574768066, -0.009543988853693008, -0.2056230753660202, -0.0687878429889679, 0.010970748960971832, 0.03975455462932587, 0.10886979848146439, -0.008035076782107353, -0.026324409991502762, 0.09462831914424896, -0.0272773839533329, -0.06041231378912926, 0.046540021896362305, -0.08670617640018463, -0.1430627852678299, -0.07874678820371628, -0.021760204806923866, 0.06961438059806824, -0.06366143375635147, -0.05416075512766838, -0.03918994590640068, -0.2028847634792328, 0.04634249210357666, 0.08456266671419144, 0.051474679261446, 0.04812421649694443, 0.12396229058504105, -0.020527195185422897, 0.04218289628624916, 0.04365425556898117, 0.08251342177391052, 0.04711847007274628, -0.24777571856975555, 0.016002267599105835, -0.009856886230409145, -0.05129130929708481, -0.08794178813695908, -0.03430912643671036, -0.0156545490026474, 0.14496967196464539, 0.09697216749191284, -0.08150217682123184, -0.03902795910835266, -0.24449317157268524, -0.09217821806669235, -0.18204088509082794, 0.07212649285793304, 0.11430493742227554, 0.039968203753232956, 0.03913789615035057, -0.06493436545133591, -0.09596025198698044, 0.019912682473659515, -0.0076040527783334255, 0.10725291073322296, -0.1739742010831833, -0.09668684750795364, -0.24828916788101196, 0.04157751426100731, -0.03370507434010506, 0.11386752128601074, -0.04693346098065376, -0.017770221456885338, 0.100454181432724, 0.06864753365516663, -0.007777895778417587, 0.09801411628723145, 0.0383617989718914, 0.07194603979587555, 0.13315866887569427, 0.006598460488021374, -0.10831226408481598, -0.04405340552330017, 0.02552957274019718, -0.05973772704601288, 0.06347128748893738, 0.1088368222117424, 0.05018437281250954, -0.037750132381916046, -0.0399651825428009, -0.01145322434604168, -0.0953640565276146, 0.024342413991689682, 0.027101362124085426, 0.07295563817024231, 0.03408929705619812, 0.04047461226582527, -0.07529623806476593, 0.037237152457237244, 0.024784745648503304, -0.024990856647491455, 0.02618664875626564, -0.1606174260377884, -0.30584079027175903, -0.18940773606300354, 0.07464305311441422, -0.009132064878940582, -0.0674515962600708, 0.12197613716125488, -0.004245228134095669, 0.03547610342502594, -0.06725015491247177, 0.036833737045526505, -0.05839627981185913, 0.06236540898680687, -0.15153470635414124, -0.3059278130531311, 0.07019363343715668, 0.008504466153681278, -0.06603722274303436, 0.13440169394016266, -0.07443418353796005, -0.20665520429611206, 0.13016119599342346, 0.04756137356162071, 0.1148703545331955, -0.01367759145796299, 0.10222606360912323, 0.02522878721356392, -0.02294664829969406, 0.024540003389120102, -0.2056983858346939], [0.015017800033092499, 0.0029837265610694885, 0.03384145349264145, -0.06859045475721359, -0.03524725139141083, 0.048836104571819305, 0.0044565349817276, -0.04997902736067772, -0.032770100980997086, 0.03456640988588333, 0.06639758497476578, -0.005552344024181366, 0.04251673072576523, -0.08810124546289444, -0.021779507398605347, -0.032230209559202194, -0.016797982156276703, 0.012224987149238586, -0.08162643015384674, 0.054882921278476715, 0.07137737423181534, 0.07323891669511795, 0.05832647532224655, -0.08775634318590164, -0.05852551385760307, -0.036823805421590805, 0.0863795205950737, 0.0467357262969017, 0.04828450828790665, -0.026129096746444702, 0.0816657766699791, -0.01087486743927002, -0.05120960995554924, -0.00461646169424057, -0.07584177702665329, 0.08707932382822037, 0.01265888661146164, -0.01240655779838562, -0.07901981472969055, 0.03648890554904938, 0.07845527678728104, -0.07415745407342911, 0.05846423655748367, 0.02171466499567032, -0.08815287053585052, -0.024878978729248047, 0.026560567319393158, -0.07026950269937515, 0.062222711741924286, 0.0345100462436676, -0.08599232137203217, -0.08277346193790436, -0.03787875175476074, -0.011268004775047302, 0.005255751311779022, 0.02153155207633972, 0.047429151833057404, -0.008205920457839966, -0.029273178428411484, 0.0045312196016311646, -0.046857718378305435, -0.04924614727497101, 0.06426223367452621, -0.03972780704498291, -0.01565902680158615, 0.07458207756280899, -0.05335550755262375, -0.0436394028365612, 0.0689132884144783, -0.016248367726802826, -0.011027820408344269, -0.07834163308143616, -0.057895101606845856, -0.04147960990667343, -0.05309492349624634, 0.009261608123779297, -0.010537132620811462, -0.06391777843236923, -0.009777858853340149, -0.011929042637348175, 0.06984559446573257, 0.023958072066307068, 0.02691665291786194, 0.012830175459384918, -0.06065976619720459, -0.06722942739725113, 0.02726484090089798, -0.03510301187634468, -0.030843254178762436, -0.053765323013067245, 0.0628092959523201, -0.07252931594848633, 0.0028879567980766296, -0.054680414497852325, -0.03506120294332504, 0.03744823485612869, -0.04870320111513138, 0.055127374827861786, -0.024812757968902588, -0.0006586611270904541, -0.010982997715473175, -0.041142161935567856, 0.06533589214086533, -0.006883971393108368, -0.010042205452919006, 0.021508894860744476, 0.08346783369779587, -0.07262533158063889, -0.08309067785739899, 0.07253075391054153, 0.08620423823595047, 0.08688225597143173, -0.0036659613251686096, -0.08387670665979385, 0.0038644522428512573, 0.028724245727062225, -0.05146554857492447, 0.0025825798511505127, -0.035964883863925934, -0.03309374675154686, 0.01188371330499649, -0.0598890595138073, 0.02076508104801178, 0.08750777691602707, 0.00011535733938217163, -0.07141868770122528, -0.018392249941825867, -0.02341695874929428], [-0.11165393888950348, -0.08189250528812408, 0.26990845799446106, 0.011337255127727985, -0.13983134925365448, 0.682151198387146, 0.19742736220359802, -0.02415413223206997, 1.3947148323059082, 0.06336452811956406, 0.06904567033052444, -0.17181767523288727, 0.022883692756295204, -0.0043577211908996105, -0.38895535469055176, 0.19042843580245972, -0.05776572227478027, -0.10603363066911697, 0.024268528446555138, 0.07733871787786484, 0.24181830883026123, 0.25596413016319275, 0.10264437645673752, -0.11655357480049133, -0.03257153183221817, 0.13593730330467224, 0.03570796921849251, 0.7988834977149963, 0.020154040306806564, -0.1692228764295578, -0.08768107742071152, -0.05886903405189514, 0.029103387147188187, -0.07260094583034515, -0.05820789933204651, -0.03126838803291321, -0.048918720334768295, -0.06117383390665054, 0.027488060295581818, 0.030682243406772614, 0.02889098785817623, 0.16509780287742615, 0.28164035081863403, 0.09340769052505493, 0.050512947142124176, 0.0341034010052681, 0.1040237694978714, 0.09378378838300705, 0.10030630975961685, -0.003722820430994034, -0.01921720616519451, 0.3311351537704468, 0.02916913665831089, 0.07014735788106918, -0.22765769064426422, 0.08057993650436401, 0.03911709785461426, -0.11420214176177979, 0.20916031301021576, 0.06493930518627167, -0.1009768471121788, -0.08064477145671844, 0.18933016061782837, 0.7803547978401184, -0.0361676923930645, -0.042532335966825485, 0.28272125124931335, -0.025772392749786377, -0.005149105563759804, -0.06683367490768433, 0.14115877449512482, -0.2798639237880707, -0.13245248794555664, -0.12755879759788513, 0.11690965294837952, 0.21282535791397095, -0.053717803210020065, -0.260059118270874, -0.07634130865335464, 0.015478595159947872, 0.32200613617897034, -0.06098117679357529, 0.08418121933937073, -0.016252193599939346, -0.04976550117135048, 0.045769162476062775, -0.09928757697343826, -0.17451046407222748, -0.02452795021235943, 0.1792556643486023, 0.11085768789052963, -0.1948506385087967, -0.17186421155929565, 0.27748167514801025, 0.2814888060092926, -0.13018587231636047, -0.2770797908306122, 0.4003772735595703, 0.3922910690307617, 0.19940488040447235, 0.2738651931285858, 0.014777894131839275, 0.12588953971862793, 0.18801313638687134, -0.16361914575099945, 0.06596111506223679, -0.08823166787624359, -0.0427347756922245, -0.04946959763765335, 0.11795176565647125, 0.07276147603988647, 0.46397826075553894, 0.5498871803283691, -0.11444076895713806, 0.7576336860656738, 0.012874729931354523, 0.12774711847305298, -0.1725180745124817, -0.49701178073883057, -0.0394136868417263, -0.048014018684625626, 0.058937638998031616, -0.06362157315015793, -0.0758761465549469, -0.00766261899843812, -0.07428835332393646, 0.23326566815376282, -0.17940056324005127], [0.1262648105621338, -0.0466337688267231, 0.18139801919460297, 0.07559998333454132, 0.005685571581125259, 0.11594699323177338, 0.20968182384967804, 0.012604327872395515, 0.3393099904060364, 0.1458900421857834, 0.10856746882200241, 0.07766681164503098, 0.05739258974790573, 0.06437541544437408, -0.0033084179740399122, -0.02415689080953598, -0.053317513316869736, -0.04082442820072174, -0.008558797650039196, 0.12818963825702667, 0.02631443366408348, 0.0384962223470211, 0.0314951129257679, -0.01248395536094904, 0.04833724722266197, 0.09799477458000183, 0.004558473359793425, 0.04093373194336891, -0.06478611379861832, -0.06351778656244278, -0.030022326856851578, 0.03245724365115166, 0.022547945380210876, 0.00837491825222969, 0.006222211755812168, 0.011340893805027008, 0.0969047099351883, 0.08785173296928406, 0.1480870544910431, -0.013185876421630383, 0.00059973553288728, -0.06912039965391159, 0.1159316822886467, 0.04009465500712395, 0.021353954449295998, 0.03428247570991516, -0.02332918904721737, 0.0759323388338089, 0.18898722529411316, 0.2583650052547455, 0.07466329634189606, 0.15543732047080994, 0.058837372809648514, -0.03756404295563698, -0.03066892921924591, 0.0695081278681755, 0.07041634619235992, 0.18071024119853973, 0.1709480732679367, 0.015074114315211773, 0.05033481493592262, 0.11933784931898117, 0.14191444218158722, 0.276790976524353, -0.05728989094495773, 0.014848541468381882, 0.05851210281252861, -0.026559103280305862, -0.057212699204683304, -0.022832799702882767, 0.04743009805679321, 0.02826213464140892, 0.06705484539270401, 0.00020162551663815975, 0.0009057820425368845, 0.07775150239467621, -0.031367067247629166, 0.010188300162553787, 0.05803404748439789, 0.035884104669094086, 0.1482607126235962, -0.04831098020076752, -0.0155738964676857, 0.05436268821358681, 0.02307683415710926, -0.0663352906703949, -0.07203572243452072, 0.24453367292881012, 0.09122372418642044, 0.09118514508008957, 0.10597508400678635, 0.06828151643276215, -0.06450052559375763, 0.03816210851073265, -0.0816105529665947, 0.007255684118717909, 0.03380069509148598, -0.019472086802124977, 0.0864172875881195, 0.10873616486787796, 0.17166739702224731, 0.08745691180229187, 0.04719056934118271, 0.01487138494849205, -0.042146071791648865, 0.11691036075353622, 0.12786349654197693, 0.02667759545147419, 0.0769076868891716, 0.08829456567764282, 0.09355772286653519, 0.28868138790130615, 0.270192950963974, 0.03610784187912941, -0.038006171584129333, 0.0815330296754837, 0.11207736283540726, -0.08303652703762054, 0.2007818967103958, -0.0369785875082016, -0.09447292238473892, -0.05442678555846214, 0.06856558471918106, 0.09851257503032684, -0.018673129379749298, -0.024068329483270645, 0.13587161898612976, -0.1276114135980606], [-0.007627221290022135, 0.049618400633335114, -0.11928985267877579, 0.005129346624016762, 0.045022811740636826, 0.05041651427745819, 0.09848782420158386, -0.06235063448548317, -0.28491148352622986, 0.14335618913173676, -0.059634361416101456, -0.009184262715280056, -0.007531077601015568, 0.08383248746395111, 0.03500394895672798, -0.00808260589838028, 0.027987178415060043, 0.044911351054906845, 0.10055145621299744, -0.06680953502655029, -0.0034274945501238108, -0.1779562085866928, -0.02165457047522068, -0.06307260692119598, -0.01184987835586071, 6.37072225799784e-05, 0.0007923170924186707, 0.13554199039936066, 0.02667652815580368, 0.02327362820506096, 0.0072546894662082195, -0.025379043072462082, 0.06444147974252701, -0.058332059532403946, 0.0863678976893425, -0.054451484233140945, 0.018113553524017334, 0.003925099037587643, -0.08845013380050659, -0.0636148750782013, -0.051186200231313705, -0.06857920438051224, -0.11385659128427505, 0.010230249725282192, -0.04237467795610428, 0.09907170385122299, 0.008896935731172562, -0.025543086230754852, -0.029796918854117393, -0.13203510642051697, -0.02189427614212036, 0.048745498061180115, 0.005266134161502123, 0.041372086852788925, -0.0943576768040657, -0.013465618714690208, -0.00933321937918663, -0.23446795344352722, -0.06766840815544128, 0.03252850100398064, -0.03648550435900688, -0.01084708422422409, -0.03515462204813957, -0.1300421506166458, 0.04073445871472359, 0.0363689623773098, 0.03593933582305908, -0.009010649286210537, 0.0689937025308609, 0.0845322236418724, -0.007510026916861534, -0.08538424968719482, -0.022063888609409332, -0.053411517292261124, 0.0064828661270439625, 0.15187738835811615, -0.06488162279129028, 0.08961078524589539, -0.06256210803985596, 0.07684019953012466, -0.026141619309782982, 0.0589139424264431, -0.061274453997612, 0.01806025020778179, -0.01491187047213316, 0.04231390729546547, -0.05246880650520325, -0.05101042613387108, -0.004474476911127567, 0.03191465884447098, 0.09737413376569748, 0.10133475065231323, -0.08487576991319656, 0.058004993945360184, -0.012762236408889294, -0.031616296619176865, 0.01663188450038433, -0.025996634736657143, -0.10194526612758636, 0.02956204302608967, -0.08390402793884277, 0.07740052789449692, 0.04482618719339371, 0.03212330490350723, 0.06001296639442444, 0.05351261422038078, -0.11267354339361191, -0.02577810548245907, -0.10573220252990723, -0.07681464403867722, 0.00819913949817419, 0.08818455785512924, -0.17495207488536835, -0.007755598518997431, -0.3264949917793274, 0.006649196147918701, 0.13027088344097137, -0.07645534723997116, -0.11562459915876389, 0.05392434448003769, 0.010857758112251759, 0.09675661474466324, 0.07444590330123901, 0.04176728427410126, 0.07498178631067276, -0.026172278448939323, 0.0630868524312973, 0.02012346126139164], [-0.05663738027215004, 0.07223229110240936, 0.03059585951268673, -0.042236875742673874, 0.020425433292984962, 0.0473860502243042, 0.011043750680983067, 0.03436661511659622, 0.046579960733652115, 0.02253037877380848, 0.04877312853932381, -0.017117731273174286, 0.05828147381544113, -0.03417542204260826, 0.030067261308431625, -0.004337636288255453, -0.08823516964912415, -0.059457749128341675, -0.09037428349256516, -0.08731358498334885, -0.03693750500679016, -0.003181461477652192, 0.05217640474438667, 0.03576457500457764, 0.08083361387252808, -0.007772750686854124, -0.05480694770812988, 0.07264260947704315, 0.04023592174053192, -0.08804003894329071, -0.04485209658741951, 0.08041658252477646, 0.05062894895672798, 0.027709130197763443, 3.473039032542147e-05, -0.012662507593631744, -0.008258335292339325, 0.018459327518939972, -0.010034987702965736, 0.06934762746095657, 0.03572763875126839, -0.08496668934822083, -0.08608393371105194, -0.053274188190698624, 0.08088617026805878, -0.07183650881052017, 0.0224520992487669, 0.05404116213321686, 0.03332544490695, -0.03941740095615387, 0.024482635781168938, 0.04612024873495102, 0.01666412688791752, 0.08131033182144165, 0.032970696687698364, -0.02076689898967743, -0.06884864717721939, 0.06089860945940018, -0.02378241904079914, 0.03568810969591141, -0.0830700546503067, 0.032443564385175705, 0.08425699174404144, -0.05240589380264282, 0.0029582600109279156, -0.08683887869119644, 0.01234513707458973, -0.04328697919845581, -0.025276750326156616, 0.04784620925784111, -0.029033392667770386, -0.06824006140232086, 0.07010026276111603, -0.033047210425138474, 0.06400368362665176, 0.04420468956232071, -0.09454908221960068, 0.033935558050870895, 0.0387306809425354, 0.07737921923398972, 0.029880454763770103, -0.06308656930923462, -0.014211451634764671, 0.026418685913085938, -0.08667012304067612, -0.011575027368962765, -0.08296377956867218, 0.048614609986543655, -0.07502344250679016, -0.01403995044529438, -0.03278687223792076, -0.03516310825943947, -0.008845852687954903, 0.07869300246238708, -0.021474847570061684, -0.0619228258728981, -0.01877756603062153, 0.050781767815351486, 0.017161162570118904, -0.08203934133052826, -0.06124483421444893, -0.06602354347705841, 0.07503404468297958, 0.028995996341109276, -0.015945829451084137, -0.07266201078891754, -0.036219220608472824, -0.04542076215147972, -0.059340424835681915, -0.015707559883594513, -0.03861239179968834, -0.011746728792786598, -0.03978404402732849, -0.006902012042701244, -0.059539299458265305, 0.019227173179388046, 0.08473297208547592, -0.06058787554502487, -0.015369960106909275, -0.08492989838123322, 0.03801039233803749, -0.04096232354640961, -0.07733997702598572, -0.038831450045108795, 0.06860627233982086, 0.06275574117898941, 0.03131629899144173, -0.08080101758241653], [0.0691765770316124, -0.04463515430688858, -0.008635833859443665, 0.08166147023439407, -0.04591541737318039, -0.06666867434978485, -0.0703529417514801, 0.012584187090396881, 0.07625388354063034, 0.01792634278535843, 0.07968024164438248, -0.052660148590803146, 0.042652152478694916, 0.05449005216360092, 0.07218200713396072, -0.07728537172079086, -0.06054557114839554, 0.07886455208063126, -0.02468942105770111, 0.07057370990514755, 0.07762249559164047, -0.08057110011577606, -0.023099400103092194, -0.05522765964269638, 0.017691083252429962, 0.008347287774085999, -0.07799039036035538, 0.07142893224954605, 0.07837601751089096, -0.06888850033283234, 0.06636009365320206, -0.0603986456990242, 0.02329283207654953, 0.07628404349088669, -0.03288930281996727, -0.0337684229016304, 0.0847088024020195, 0.042037926614284515, -0.05225486308336258, -0.06248053163290024, 0.023308753967285156, 0.059703148901462555, 0.057332880795001984, -0.06468818336725235, 0.08148659020662308, -0.031378790736198425, -0.07514582574367523, -0.017223626375198364, -0.06947237998247147, 0.0006840676069259644, 0.012939311563968658, -0.04920282959938049, -0.0050043389201164246, -0.026721101254224777, -0.030616849660873413, -0.05218188464641571, 0.03739217668771744, -0.019081056118011475, -0.019755177199840546, -0.0827726274728775, -0.056933723390102386, -0.044108614325523376, 0.044988326728343964, -0.005613654851913452, -0.015315502882003784, -0.08575743436813354, -0.05660148710012436, 0.07330965250730515, -0.029064878821372986, -0.03862766921520233, 0.013269968330860138, 0.000935673713684082, 0.001974038779735565, -0.03166467323899269, -0.01888788491487503, 0.03272368013858795, 0.01869090646505356, -0.045141011476516724, 0.025546133518218994, -0.004776500165462494, -0.012490347027778625, -0.06299852579832077, -0.044575244188308716, -0.04554418846964836, -0.0490284264087677, 0.049955420196056366, 0.06258120387792587, 0.07469580322504044, 0.014735974371433258, -0.03619811683893204, -0.08380001038312912, -0.054146043956279755, 0.0389508381485939, -0.06160193681716919, -0.03956352174282074, -0.04675469920039177, -0.026271585375070572, -0.06748960167169571, -0.01160351186990738, 0.04178775101900101, -0.03814925253391266, 0.036158546805381775, 0.07611144334077835, 0.007057711482048035, -0.05040392279624939, -0.0752253457903862, -0.019939273595809937, 0.01791531592607498, 0.03616204857826233, 0.07434827834367752, 0.042071349918842316, -0.0462341345846653, -0.047723256051540375, -0.055455949157476425, -0.0650438591837883, 0.00756603479385376, 0.060854993760585785, 0.061605341732501984, -0.07614932209253311, 0.01841304451227188, 0.033239416778087616, -0.05634887143969536, -0.060378044843673706, 0.06401783972978592, -0.027371983975172043, -0.028476569801568985, -0.04418911412358284, -0.0007566288113594055], [0.20152224600315094, 0.1199054941534996, -0.15105779469013214, -0.002968853572383523, 0.07878042012453079, -0.29384440183639526, -0.12460104376077652, -0.11304687708616257, -0.3068435490131378, 0.008664156310260296, 0.031933654099702835, 0.02301475964486599, -0.06805714219808578, 0.0760374367237091, 0.1142292320728302, 0.026234744116663933, 0.07328681647777557, 0.08251067250967026, 0.02532614953815937, -0.21118667721748352, -4.003264621132985e-05, 0.02765987440943718, 0.0456831231713295, 0.06677620857954025, -0.0521773099899292, 0.026574615389108658, 0.11021481454372406, -0.09185833483934402, -0.09272103756666183, -0.11007370054721832, -0.030025573447346687, -0.06320124864578247, 0.014215965755283833, -0.19592739641666412, -0.03446260839700699, 0.026998944580554962, 0.05652884766459465, 0.08999493718147278, 0.027223097160458565, 0.013208918273448944, 0.022838613018393517, 0.0207198578864336, -0.09540208429098129, -0.06834522634744644, -0.040415436029434204, -0.16474105417728424, 0.010010778903961182, -0.003735190024599433, -0.21236053109169006, -0.1585719883441925, 0.06706821918487549, -0.2325163334608078, 0.11166277527809143, 0.008292170241475105, -0.009565996006131172, 0.05387403815984726, 0.01015643309801817, 0.20531806349754333, -0.2322780191898346, 0.017346786335110664, 0.07249847799539566, -0.026466544717550278, 0.2338121384382248, -0.17439180612564087, 0.05702148377895355, -0.004027467221021652, 0.10046254098415375, 0.10957060754299164, -0.07897882163524628, 0.023050960153341293, 0.0725008174777031, -0.058727022260427475, 0.019403675571084023, 0.004061629995703697, 0.05984177440404892, 0.12825007736682892, -0.07852672040462494, -0.08473383635282516, 0.06686832010746002, 0.04798724874854088, -0.06336592137813568, -0.05611473694443703, -0.06380761414766312, 0.040918558835983276, -0.03153115510940552, 0.027437493205070496, -0.12409990280866623, -0.07206681370735168, -0.032413236796855927, -0.013281160965561867, 0.0771440640091896, 0.13679759204387665, 0.06771465390920639, -0.00025223061675205827, 0.13416089117527008, -0.023516720160841942, 0.01551942341029644, -0.2269221395254135, -0.010215735994279385, -0.03316198289394379, -0.037361279129981995, -0.0035274438560009003, -0.028162995353341103, -0.10245972126722336, 0.06323002278804779, -0.09495282173156738, 0.3297603726387024, 0.07217127829790115, 0.03216608613729477, -0.44155511260032654, 0.24564632773399353, -0.19630233943462372, -0.21715150773525238, 0.009523213841021061, -0.07340212166309357, -0.002342636464163661, 0.025683902204036713, 0.007191119249910116, -0.0799364447593689, -0.0017250858945772052, 0.12889902293682098, -0.13297820091247559, -0.02842206321656704, 0.052363790571689606, 0.0008236044086515903, -0.027479523792862892, -0.1147976741194725, 0.0768086388707161], [-0.04507032409310341, -0.12353037297725677, -0.1226840615272522, -0.0793243944644928, 0.04573984816670418, -0.1591784656047821, 0.0112736402079463, 0.06623418629169464, -0.26798132061958313, -0.0014263823395594954, 0.018484314903616905, 0.0317809134721756, 0.006354971788823605, 0.08675455302000046, 0.1844116747379303, 0.002917187986895442, -0.07546880841255188, -0.026227917522192, 0.11907561123371124, -0.07048707455396652, -0.051596686244010925, -9.019199933391064e-05, -0.05792558565735817, 0.053399667143821716, -0.022311145439743996, 0.03875156491994858, -0.0581931546330452, 0.0297055933624506, 0.05588802695274353, 0.08759279549121857, 0.07521132379770279, 0.041066452860832214, 0.03960985317826271, -0.0052572996355593204, 0.03749218210577965, -0.023186296224594116, -0.02527543343603611, 0.07505419850349426, 0.049470651894807816, 0.08528397232294083, -0.01949571818113327, -0.13469256460666656, -0.14290684461593628, 0.09318193048238754, 0.03520636260509491, 0.051481105387210846, 0.08207153528928757, -0.07458841800689697, -0.17260482907295227, -0.22349053621292114, -0.08080371469259262, -0.09380918741226196, -0.024388959631323814, -0.006385065149515867, -0.02079068124294281, -0.04065250977873802, -0.05742848291993141, -0.09290479868650436, -0.04674934223294258, 0.049645859748125076, -0.016583818942308426, -0.0339215062558651, -0.16540062427520752, -0.2662237882614136, 0.06145871803164482, 0.007064533419907093, 0.026248062029480934, 0.009022561833262444, 0.12460793554782867, 0.017989609390497208, 0.04767478257417679, 0.009024890139698982, -0.09179972857236862, 0.038244206458330154, 0.0017277250299230218, 0.05333038419485092, -0.01699727587401867, -0.07057680934667587, -0.014112650416791439, 0.05564778298139572, -0.16448543965816498, 0.0812825933098793, 0.09404302388429642, 0.0565078929066658, 0.018698956817388535, -0.020543159916996956, 0.07795543223619461, -0.11855445802211761, -0.12274511158466339, 0.0227529127150774, -0.022273650392889977, -0.044299788773059845, 0.09221179783344269, -0.05888437107205391, 0.1017836183309555, -0.056810397654771805, 0.07906420528888702, 0.013254296034574509, 0.005706537049263716, -0.20612220466136932, -0.1792616993188858, 0.10260363668203354, 0.018122565001249313, -0.07114645093679428, -0.001920925686135888, 0.03840643912553787, 0.028909368440508842, 0.03377183526754379, -0.07682985812425613, -0.1290532648563385, -0.004903812427073717, 0.019992727786302567, -0.3226567506790161, 0.020313234999775887, -0.02881147339940071, 0.01783929578959942, 0.02717342972755432, -0.09449182450771332, -0.3820234537124634, 0.1180788055062294, 0.06581707298755646, -0.03832942619919777, -0.0020038874354213476, 0.0797298401594162, -0.06602830439805984, 0.040426746010780334, -0.06762393563985825, -0.14451467990875244], [-0.11608455330133438, 0.20181825757026672, -0.050496380776166916, -0.13678403198719025, 0.02657763659954071, 0.2498646229505539, -0.03661692515015602, -0.11451226472854614, 0.42095664143562317, 0.012463927268981934, -0.039052922278642654, 0.20714040100574493, 0.08776328712701797, -0.03564239293336868, -0.068254753947258, 0.1330215036869049, 0.020744455978274345, 0.05039693042635918, -0.06446323543787003, 0.11169077455997467, 0.08166444301605225, 0.011706282384693623, 0.1618773490190506, 0.18061867356300354, 0.014730025082826614, -0.14730288088321686, -0.15451087057590485, -0.0863695964217186, -0.3916696608066559, -0.20810113847255707, 0.11504003405570984, 0.1729913055896759, -0.18906283378601074, 0.2476309835910797, -0.10784989595413208, 0.04451858252286911, -0.11803532391786575, -0.24640002846717834, 0.18798406422138214, 0.18657594919204712, -0.05957856774330139, 0.1851891726255417, 0.1298443078994751, -0.07088270783424377, 0.25209560990333557, 0.13702552020549774, 0.032953500747680664, -0.18700607120990753, -0.13555191457271576, 0.15935365855693817, -0.006153601687401533, 0.09498001635074615, -0.21341943740844727, 0.13853439688682556, -0.3655840754508972, 0.12173187732696533, 0.0670807734131813, 0.14271125197410583, 0.25875020027160645, 0.0736679881811142, -0.01703413762152195, -0.43700557947158813, -0.9052051305770874, 0.258779913187027, 0.04634683206677437, 0.12181857973337173, 0.17214342951774597, -0.25121086835861206, 0.04260566830635071, 0.09882377088069916, -0.162510946393013, 0.03376668319106102, 0.15591511130332947, -0.3776856064796448, 0.07134067267179489, 0.1774054914712906, 0.06747907400131226, 0.15193356573581696, -0.03364022076129913, -0.05467938631772995, -0.02972222864627838, 0.04605960100889206, 0.2528841197490692, 0.04038551077246666, -0.15569564700126648, -0.020610466599464417, -0.046858590096235275, -0.46541643142700195, 0.11515974998474121, 0.041134417057037354, 0.0412055142223835, 0.17501485347747803, 0.04756256565451622, 0.17324821650981903, -0.008431879803538322, 0.08969555050134659, 0.06367199867963791, -0.22584836184978485, -0.0020581467542797327, 0.25664740800857544, 0.09918583184480667, -0.1356404572725296, 0.12121464312076569, -0.12145479768514633, -0.01675185188651085, -0.09730155766010284, -0.43583884835243225, -0.22528481483459473, -0.18069836497306824, -0.07710324972867966, 0.0917908251285553, 0.5083728432655334, 0.3938335180282593, 0.017801420763134956, -0.14064712822437286, 0.17822210490703583, -0.11045503616333008, -0.2858163118362427, 0.12203578650951385, -0.05215231329202652, -0.024349121376872063, -0.0821482464671135, -0.05676358565688133, -0.00021260011999402195, -0.1332826167345047, -0.15422959625720978, -0.003672841703519225, 0.07148078829050064], [-0.004421942867338657, 0.030651167035102844, -0.23936942219734192, -0.015498928725719452, 0.03205542266368866, -0.24050593376159668, -0.09146551787853241, 0.08550567179918289, -0.20188075304031372, -0.04840091988444328, -0.00037414292455650866, 0.005917115602642298, 0.04639279097318649, 0.02955727092921734, 0.0282281506806612, -0.037616368383169174, 0.023668501526117325, 0.005618313327431679, 0.15201535820960999, -0.14714215695858002, 0.019547540694475174, -0.040283724665641785, 0.0325717031955719, 0.017268657684326172, -0.11305689811706543, 0.05259266868233681, -0.03513246774673462, -0.09266494959592819, -0.004751425236463547, 0.014740501530468464, -0.03370630368590355, 0.043875399976968765, 0.06913069635629654, -0.08548429608345032, -0.025203634053468704, -0.028436772525310516, -0.05720481276512146, -0.02375023439526558, -0.06715843826532364, 0.10621309280395508, 0.004157303832471371, 0.23521074652671814, -0.20133870840072632, 0.0475194975733757, 0.025295889005064964, 0.06279979646205902, 0.0607963502407074, 0.047947317361831665, -0.03636438027024269, -0.23819120228290558, -0.020764688029885292, -0.24276021122932434, 0.08644302934408188, 0.10126550495624542, -0.03046032227575779, 0.0921238362789154, -0.011207629926502705, -0.10644950717687607, -0.015475260093808174, -0.0726243183016777, -0.028809677809476852, -0.061508938670158386, -0.20868930220603943, -0.22931982576847076, 0.024812210351228714, -0.10421185195446014, -0.045891303569078445, -0.04747816175222397, -0.03425256535410881, -0.006354303564876318, 0.007111829239875078, 0.026911621913313866, 0.025397889316082, -0.007266796659678221, 0.024488143622875214, 0.1525750458240509, 0.0781695693731308, -0.03597679361701012, -0.027503101155161858, 0.10069242119789124, -0.1712828129529953, -0.061526499688625336, 0.07487931102514267, -0.094057098031044, 0.04599401727318764, 0.08983559906482697, 0.07023410499095917, -0.15016742050647736, 0.04540332034230232, -0.0996440127491951, 0.044810183346271515, 0.033014390617609024, -0.004298817832022905, -0.1530567854642868, 0.04618796333670616, -0.09822312742471695, 0.06493446230888367, 0.02863118052482605, -0.19596785306930542, -0.10298405587673187, -0.2119315266609192, 0.03558311611413956, -0.12424333393573761, 0.022063028067350388, 0.08217576146125793, -0.044819146394729614, -0.03899170830845833, -0.017631957307457924, -0.07573509961366653, -0.09612024575471878, 0.13352331519126892, -0.3088288903236389, -0.17191281914710999, 0.0071021816693246365, 0.17289894819259644, 0.05345366150140762, -0.034606944769620895, -0.026349779218435287, -0.09830255806446075, 0.04603062942624092, 0.1190924197435379, 0.07436706125736237, -0.09820279479026794, -0.05206457898020744, -0.006266341079026461, 0.018112799152731895, 0.0018775617936626077, 0.06697791069746017], [-0.0015398547984659672, -0.08408385515213013, -0.11610940843820572, -0.040683601051568985, -0.03318045660853386, -0.26436471939086914, -0.08160823583602905, -0.02097620815038681, -0.20250141620635986, -0.05704030394554138, 0.01816219463944435, 0.03765440359711647, 0.09466539323329926, 0.09159208834171295, 0.08736254274845123, -0.01849324442446232, -0.02421671338379383, -0.045767709612846375, 0.10034024715423584, -0.024622565135359764, 0.12573979794979095, -0.03488248586654663, 0.06093461066484451, 0.03051028400659561, -0.0885547399520874, 0.0096734669059515, -0.0642169862985611, -0.011216321960091591, -0.026770155876874924, 0.0526774562895298, -0.06344681233167648, 0.06628511846065521, 0.05073730647563934, 0.03581509366631508, -0.044049933552742004, 0.07642262428998947, 0.08810798078775406, 0.03891904652118683, -0.05424004793167114, 0.0926818996667862, -0.0022732538636773825, 0.07371807843446732, -0.10715989023447037, -0.057616379112005234, 0.04452832043170929, -0.06061467528343201, 0.007449690718203783, 0.06709858775138855, -0.03318624943494797, -0.02801154926419258, -0.013995075598359108, -0.13747356832027435, 0.11342563480138779, 0.08825384080410004, -0.026157567277550697, 0.03381108492612839, -0.03571784123778343, -0.07437784224748611, -0.04595211520791054, 0.08372891694307327, 0.011634962633252144, -0.04140970855951309, -0.20059005916118622, -0.1479552537202835, -0.017389053478837013, -0.05096118152141571, 0.022961953654885292, 0.019295845180749893, -0.040607910603284836, -0.012335003353655338, -0.020706817507743835, -0.08985293656587601, 0.052011698484420776, -0.03441845625638962, 0.09530442208051682, -0.247953400015831, 0.011393355205655098, 0.004024447873234749, -0.05717119202017784, -0.060446396470069885, -0.044608183205127716, -0.008215638808906078, -0.01885378733277321, 0.05705234780907631, 0.1058063879609108, -0.07725925743579865, 0.0718960165977478, -0.0692492201924324, 0.004302460700273514, -0.07918821275234222, -0.005591095890849829, -0.019436314702033997, -0.03624815121293068, -0.0192788727581501, -0.04833141714334488, -0.05156950280070305, -0.07026972621679306, 0.03362053260207176, -0.14466756582260132, -0.13717930018901825, -0.1407579779624939, -0.053392861038446426, 0.028248878195881844, -0.017671829089522362, 0.08589787781238556, -0.06551605463027954, -0.005554649513214827, 0.0005024347337894142, 0.03626016899943352, -0.03387496620416641, -0.07172650098800659, -0.2693420350551605, -0.33863168954849243, -0.06855753064155579, 0.08261386305093765, -0.03472926840186119, 0.07186074554920197, 0.009810425341129303, -0.11736107617616653, 0.07637734711170197, 0.021210134029388428, 0.05424687638878822, -0.05207682400941849, 0.07165730744600296, 0.018992092460393906, 0.0646350234746933, -0.044533561915159225, 0.14392709732055664], [0.06497251242399216, 0.11121905595064163, -0.02018720656633377, 0.10614581406116486, -0.04257361963391304, -0.011149333789944649, -0.020320137962698936, 0.09366396069526672, -0.35725072026252747, 0.04909277707338333, 0.06666170805692673, 0.0858510434627533, -0.011790625751018524, 0.0067714499309659, -0.0018515280680730939, -0.023459700867533684, 0.008626664988696575, 0.0672493502497673, 0.052780892699956894, 0.010953039862215519, 0.09928976744413376, -0.15479601919651031, 0.04166114702820778, -0.002234932268038392, -0.019054744392633438, 0.07496327906847, 0.004238340072333813, 0.06607771664857864, 0.10481537878513336, 0.005082544405013323, -0.0223709587007761, 0.045104991644620895, -0.040980152785778046, -0.025410030037164688, 0.03735937178134918, 0.07937901467084885, 0.12211143225431442, 0.07836901396512985, 0.07066502422094345, 0.013215389102697372, 0.06985031068325043, -0.05669689550995827, 0.019878804683685303, 0.07372185587882996, -0.012756026349961758, 0.1215244010090828, 0.09691201150417328, 0.08534839004278183, -0.015222405083477497, -0.0010303042363375425, -0.04435756057500839, 0.11254186928272247, 0.09971451759338379, 0.029078960418701172, -0.06543341279029846, 0.04779951646924019, 0.022350739687681198, -0.12217287719249725, -0.011672236025333405, -0.014396709389984608, -0.017814047634601593, -0.03397189453244209, 0.07196176797151566, -0.10003580152988434, 0.01768878661096096, -0.04370603337883949, 0.0017580625135451555, 0.07842010259628296, 0.07105054706335068, -0.0323101282119751, 0.07540000975131989, 0.06907731294631958, -0.05259419605135918, 0.10064338892698288, -0.022143498063087463, -0.04118364676833153, -0.03836836665868759, 0.06526102125644684, 0.11237841099500656, 0.097213014960289, -0.03805995360016823, 0.012407916598021984, 0.0806783139705658, 0.08934705704450607, 0.106033556163311, -0.08027380704879761, 0.12312458455562592, 0.060629088431596756, 0.08987472206354141, -0.03411148861050606, 0.06690739095211029, 0.041493263095617294, 0.012394475750625134, 0.01575562357902527, 0.10571346431970596, 0.06499023735523224, 0.027304574847221375, -0.0854073315858841, -0.1394069492816925, -0.139993816614151, -0.09616757184267044, 0.04184727370738983, 0.013663203455507755, -0.022597311064600945, 0.1036779135465622, -0.00294753210619092, 0.0018053848762065172, 0.11283290386199951, -0.07167375832796097, -0.03718511760234833, 0.03865181282162666, -0.09348765015602112, -0.16970226168632507, -0.06348725408315659, -0.28835055232048035, -0.01649814285337925, 0.11849846690893173, -0.01604010909795761, -0.11873309314250946, 0.05654045566916466, 0.02008182555437088, 0.016817545518279076, -0.008936617523431778, 0.0009482078021392226, -0.07480579614639282, -0.043752312660217285, 0.0010601298417896032, 0.09920629858970642], [-0.0837344080209732, 0.07726070284843445, -0.13331344723701477, 0.02938993275165558, 0.07127928733825684, -0.08833517134189606, -0.023583952337503433, -0.020848333835601807, -0.2119915783405304, 0.07613750547170639, 0.01367600541561842, 0.02279326319694519, 0.017488235607743263, 0.05423258990049362, 0.07425756007432938, -0.10311926901340485, 0.03408138081431389, 0.0543580986559391, 0.06456193327903748, 0.015434898436069489, 0.020165815949440002, -0.07192613184452057, -0.01623048074543476, -0.02121223695576191, -0.0504271574318409, 0.03408345952630043, 0.000883581698872149, -0.07141651213169098, -0.019555984064936638, -0.02567340061068535, 0.0262257382273674, -0.013098625466227531, 0.041915036737918854, -0.04289543256163597, -0.02945473976433277, 0.08800827711820602, 0.033529844135046005, -0.03024080954492092, 0.07088010758161545, 0.021394874900579453, -0.022726984694600105, 0.06525374948978424, -0.1667906790971756, 0.09630613029003143, 0.03141666203737259, 0.051531728357076645, 0.006566682830452919, 0.09161712229251862, -0.006867353338748217, -0.09446688741445541, 0.015450895763933659, -0.04258232191205025, 0.10755395144224167, 0.05087331682443619, 0.058793459087610245, -0.06190032884478569, -0.05798764526844025, -0.11843287199735641, -0.09289807826280594, 0.03565145656466484, -0.027196750044822693, -0.038351871073246, -0.02019547112286091, -0.21253876388072968, -0.05197775363922119, 0.05423948913812637, 0.09422080218791962, 0.022089481353759766, 0.02951045334339142, 0.04881471395492554, 0.024758590385317802, 0.06028389930725098, 0.07747512310743332, -0.021245324984192848, 0.07734894007444382, 0.13390040397644043, -0.022152500227093697, -0.008128723129630089, -0.01693764142692089, 0.09297455102205276, -0.1373644918203354, -0.031725622713565826, 0.06214826926589012, 0.0112123629078269, 0.036637648940086365, -0.018623095005750656, 0.05874989181756973, -0.13818708062171936, 0.005449413787573576, -0.029744112864136696, -0.04100734740495682, 0.03897490352392197, -0.00035688915522769094, 0.05870378389954567, 0.01890021562576294, 0.04594847932457924, 0.017340149730443954, -0.026885664090514183, -0.19857168197631836, -0.1112920343875885, -0.0810985341668129, 0.0018524047918617725, 0.01827729493379593, -0.1215781569480896, 0.023973867297172546, 0.056842878460884094, -0.001255931449122727, 0.03529265150427818, -0.11143019050359726, -0.012039314955472946, 0.003186220768839121, -0.2314084768295288, -0.268047034740448, 0.04096163064241409, 0.007621751632541418, 0.06783420592546463, 0.031060244888067245, -0.0368102565407753, -0.059359725564718246, 0.10317838937044144, 0.050538621842861176, -0.06351649761199951, -0.060272932052612305, -0.048581887036561966, 0.011418219655752182, 0.10816869139671326, 0.019083088263869286, 0.1344238817691803], [-0.05293650925159454, 0.04858194664120674, 0.07421153038740158, -0.07776327431201935, -0.11849997192621231, 0.22588618099689484, 0.19789890944957733, -0.1931961625814438, 0.23651732504367828, 0.11946987360715866, -0.14137698709964752, 0.20277586579322815, 0.12080977112054825, -0.05124442279338837, -0.006776840426027775, -0.1371564269065857, 0.058663833886384964, 0.08737237006425858, -0.11539837718009949, 0.04823857545852661, 0.015646349638700485, -0.026621045544743538, 0.07103917002677917, 0.04585646465420723, -0.010523895733058453, -0.2177538275718689, -0.0016353749670088291, -0.2182328701019287, -0.06273678690195084, -0.14825236797332764, 0.19475096464157104, 0.04590776562690735, -0.17830555140972137, 0.232014000415802, 0.01682800054550171, -0.048038966953754425, -0.07867377251386642, -0.2882883548736572, -0.13557742536067963, 0.1317744106054306, -0.08579818159341812, 0.18320541083812714, 0.21992681920528412, -0.08435669541358948, 0.21764013171195984, 0.05525004863739014, 0.021634062752127647, -0.11858578026294708, -0.10206133127212524, 0.24710071086883545, 0.08849628269672394, 0.4139154851436615, -0.18621239066123962, 0.03241577744483948, -0.25228026509284973, 0.042963407933712006, 0.03214364871382713, 0.12809406220912933, 0.1351834386587143, 0.07507806271314621, 0.01327767688781023, -0.43862688541412354, -0.1310584992170334, 0.3197665512561798, 0.048342566937208176, 0.09573500603437424, 0.08074450492858887, -0.1490791141986847, 0.04077326878905296, 0.035893265157938004, -0.049366746097803116, 0.10920615494251251, 0.04893035441637039, -0.3287888467311859, -0.02495012804865837, -0.010738113895058632, 0.09433744102716446, 0.07711230218410492, -0.022792184725403786, -0.07761017233133316, -0.2169485092163086, 0.09878729283809662, 0.08768697828054428, 0.14897477626800537, -0.15677416324615479, -0.01464863307774067, 0.022738369181752205, -0.34161725640296936, 0.07455309480428696, -0.011909757740795612, -0.010665376670658588, 0.20557866990566254, 0.3614466190338135, 0.27165600657463074, 0.08673972636461258, 0.11030439287424088, 0.10390843451023102, -0.3917170464992523, -0.09789673238992691, 0.06282959133386612, 0.21409524977207184, -0.12167265266180038, 0.06214354187250137, -0.22556300461292267, -0.04071388021111488, 0.0032878608908504248, -0.06897985935211182, -0.1764102727174759, -0.09649790823459625, 0.05058947205543518, -0.014439881779253483, 0.5167558193206787, 0.22469402849674225, -0.020634930580854416, -0.1810537725687027, 0.148925319314003, -0.09050674736499786, -0.2619132995605469, 0.2949979901313782, 0.08656008541584015, -0.19401895999908447, -0.05454351380467415, 0.02881883643567562, 0.05460645258426666, -0.06398046761751175, -0.00883342232555151, 0.17900899052619934, 0.05350557342171669], [-0.0951588898897171, -0.07289513200521469, -0.14136284589767456, 0.04971533641219139, 0.029951242730021477, -0.13621510565280914, 0.03354188799858093, 0.0909557044506073, -0.15922540426254272, 0.028075117617845535, -0.06478958576917648, 0.07584705203771591, 0.08340964466333389, -0.014273433946073055, -0.0081575782969594, 0.0004506951372604817, 0.08593527972698212, 0.07939814776182175, 0.1317255049943924, -0.0751807913184166, 0.029195675626397133, -0.163381889462471, 0.06551718711853027, 0.07870699465274811, 0.07009746134281158, 0.035645511001348495, 0.09382758289575577, -0.0465901717543602, -0.0025985094252973795, 0.05152712017297745, 0.08899610489606857, 0.07479643076658249, -0.022254275158047676, 0.00458583515137434, 0.0699346587061882, 0.08617383986711502, -0.021814104169607162, -0.04945634305477142, -0.09026382863521576, 0.01261991448700428, 0.07423647493124008, -0.2512277364730835, -0.04620400816202164, -0.046226292848587036, 0.05582283064723015, -0.03889850527048111, 0.051460761576890945, -0.021813038736581802, -0.03468668460845947, -0.1347561776638031, 0.07058361917734146, -0.13636016845703125, -0.04330585151910782, -0.00538526801392436, 0.031208621338009834, 0.10484448820352554, -0.023046640679240227, -0.14168789982795715, -0.12172900885343552, -0.013524108566343784, 0.09866610169410706, 0.02369007095694542, -0.06513463705778122, -0.18983396887779236, -0.012783683836460114, -0.11146492511034012, 0.018532874062657356, -0.04818527400493622, 0.06252676248550415, -0.03586462885141373, 0.035333503037691116, -0.05259973928332329, 0.10139530152082443, -0.04066723212599754, 0.09086384624242783, -0.7393931150436401, -0.029729455709457397, 0.10935512185096741, 0.021307695657014847, 0.09640072286128998, -0.13144463300704956, 0.11077522486448288, 0.019581254571676254, -0.007846239022910595, 0.029840053990483284, -0.07303497195243835, 0.10975249856710434, -0.05660804361104965, 0.029239239171147346, 0.0402391292154789, 0.07709099352359772, 0.03250378370285034, -0.05390002205967903, -0.07342115789651871, 0.11747690290212631, 0.010102854110300541, -0.05088571831583977, 0.016202382743358612, -0.186232790350914, -0.13210241496562958, -0.09508645534515381, -0.01612273044884205, -0.0217166468501091, -0.09622976928949356, -0.04101640731096268, -0.09782230108976364, 0.10012290626764297, 0.0641489326953888, 0.037337131798267365, -0.030738217756152153, -0.043279726058244705, -0.10608138144016266, -0.24337127804756165, 0.09408844262361526, -0.003272284520789981, 0.042325157672166824, 0.0769328847527504, 0.047543615102767944, -0.118623286485672, 0.009292664937675, -0.00731353834271431, -0.06476739048957825, 0.07447479665279388, 0.08194117993116379, -0.08412245661020279, -0.054794613271951675, 0.054564911872148514, 0.1419915407896042], [-0.28623637557029724, -0.030861960723996162, -0.06971631944179535, 0.09799352288246155, -0.05626175180077553, -0.2216980904340744, -0.13471786677837372, -0.13596266508102417, -0.35811135172843933, -0.048470526933670044, 0.017736395820975304, -0.062160674482584, -0.05654313415288925, 0.07230953872203827, 0.18908727169036865, -0.08405239880084991, 0.020736120641231537, 0.06605947017669678, 0.019285915419459343, -0.2901902496814728, 0.11819200962781906, 0.040678445249795914, -0.023836927488446236, 0.057708460837602615, -0.10274504125118256, 0.06367124617099762, 0.03071436658501625, -0.1511111557483673, 0.08651959896087646, 0.003492657793685794, 0.0746721550822258, -0.046553660184144974, 0.04786218702793121, 0.14720426499843597, -0.057795971632003784, -0.017614565789699554, -0.023361921310424805, -0.04757312312722206, 0.018116259947419167, 0.006722147576510906, 0.04479244351387024, 0.41587454080581665, 0.018287312239408493, -0.020501388236880302, -0.12043385952711105, -0.1281927227973938, 0.06747401505708694, 0.0029226411134004593, -0.21842442452907562, -0.10293318331241608, 0.05153847113251686, -0.17105795443058014, -0.027097336947917938, 0.05016874149441719, -0.014567025937139988, -0.05181191861629486, 0.01723780483007431, -0.07360903918743134, -0.1185375228524208, 0.04472107067704201, 0.07330635190010071, 0.02154477871954441, 0.9085639119148254, -0.12957213819026947, 0.04221779480576515, -0.031527843326330185, 0.11704546213150024, 0.055616628378629684, -0.06311861425638199, -0.06045094132423401, -0.04714029282331467, -0.012678075581789017, 0.060553621500730515, 0.07963063567876816, -0.08039698749780655, 0.002845308044925332, -0.14000089466571808, 0.04228365793824196, 0.04797786846756935, 0.04826105013489723, -0.007220148574560881, 0.008615778759121895, -0.1783728450536728, -0.01078096218407154, 0.09458713978528976, -0.08623170107603073, -0.01295395102351904, -0.028279844671487808, -0.013415487483143806, -0.05062815919518471, 0.0685262605547905, 0.06496981531381607, 0.011319609358906746, 0.2167583853006363, -0.12142576277256012, -0.03804869204759598, 0.027156667783856392, -0.15401330590248108, -0.09020518511533737, -0.18385888636112213, 0.0544486828148365, -0.04957161471247673, -0.2122618407011032, -0.06607537716627121, 0.04112810641527176, -0.07365408539772034, 0.04754207283258438, 0.014264306984841824, -0.11510373651981354, -0.3294382691383362, -0.45364007353782654, -0.13808411359786987, 0.36195746064186096, 0.043166495859622955, 0.24809783697128296, -0.04393688216805458, 0.2797577679157257, -0.08782031387090683, -0.056485313922166824, -0.011974090710282326, -0.09688375145196915, -0.1436886340379715, -0.022284364327788353, 0.04441291466355324, -0.02905968576669693, 0.09447426348924637, -0.025441093370318413, 0.10033439844846725], [-0.04383324459195137, 0.05827143415808678, -0.07282572239637375, 0.01748121716082096, -0.02899092435836792, 